{"learner":{"attributes":{"best_iteration":"97","best_score":"0.040884","scikit_learn":"{\"_estimator_type\": \"regressor\"}"},"feature_names":[],"feature_types":[],"gradient_booster":{"model":{"gbtree_model_param":{"num_parallel_tree":"1","num_trees":"123"},"iteration_indptr":[0,1,2,3,4,5,6,7,8,9,10,11,12,13,14,15,16,17,18,19,20,21,22,23,24,25,26,27,28,29,30,31,32,33,34,35,36,37,38,39,40,41,42,43,44,45,46,47,48,49,50,51,52,53,54,55,56,57,58,59,60,61,62,63,64,65,66,67,68,69,70,71,72,73,74,75,76,77,78,79,80,81,82,83,84,85,86,87,88,89,90,91,92,93,94,95,96,97,98,99,100,101,102,103,104,105,106,107,108,109,110,111,112,113,114,115,116,117,118,119,120,121,122,123],"tree_info":[0,0,0,0,0,0,0,0,0,0,0,0,0,0,0,0,0,0,0,0,0,0,0,0,0,0,0,0,0,0,0,0,0,0,0,0,0,0,0,0,0,0,0,0,0,0,0,0,0,0,0,0,0,0,0,0,0,0,0,0,0,0,0,0,0,0,0,0,0,0,0,0,0,0,0,0,0,0,0,0,0,0,0,0,0,0,0,0,0,0,0,0,0,0,0,0,0,0,0,0,0,0,0,0,0,0,0,0,0,0,0,0,0,0,0,0,0,0,0,0,0,0,0],"trees":[{"base_weights":[5.80459E-4,-1.0862573E-2,9.3846485E-2,-2.2213666E-2,1.02211125E-1,1.1689561E-1,-3.097881E-1,-3.0125069E-2,8.777092E-2,4.909079E-2,2.0269878E-1,6.857086E-2,1.8887658E-1,-3.639176E-3,-1.957023E-4,-3.8496207E-2,1.2421202E-1,-8.636188E-2,1.40843E-1,1.3871598E-1,-9.654777E-4,2.1879897E-1,9.642442E-4,2.2338364E-2,1.4599384E-1,2.060893E-1,2.7169669E-2,-6.913891E-2,-1.0913094E-2,2.061971E-2,1.712308E-1,-3.2670377E-3,-1.2963E-2,-1.7288973E-3,1.6069268E-1,1.882469E-1,6.276529E-2,-6.625982E-2,8.0712795E-2,2.3159746E-3,1.2128557E-3,4.389426E-4,-4.2447893E-4,-3.3394817E-2,9.970648E-2,-3.869772E-4,1.5614791E-1,2.182844E-1,-8.181135E-4,6.442084E-4,-1.9138058E-4,-1.3018793E-1,4.1645665E-2,3.0219117E-2,-6.1147586E-2,1.2406148E-3,-3.9139017E-2,1.8160936E-1,3.1125268E-2,-4.2876724E-2,8.1099174E-4,-3.2522253E-4,7.6118944E-4,1.759268E-1,-5.161956E-3,2.0722805E-3,6.8554544E-4,7.602314E-4,1.0908564E-2,-8.362278E-3,-1.1287033E-1,-2.8888673E-2,1.3315788E-1,-7.8124106E-2,8.639405E-2,1.7105484E-3,1.7279617E-2,1.7686775E-3,9.777969E-4,2.3510577E-3,1.0060036E-3,-4.2447893E-4,4.1220724E-4,1.6152114E-1,-1.4088444E-1,6.856949E-2,-1.0225054E-1,8.458271E-2,-5.1031824E-2,-3.5059605E-2,-1.692954E-1,-6.151076E-4,-8.939469E-5,1.9001408E-3,9.208223E-4,-2.2393762E-5,4.8927276E-4,-6.976107E-2,-7.417035E-5,1.8569366E-3,8.4093626E-4,-2.996234E-2,3.46196E-4,9.740293E-6,1.5388816E-4,5.214791E-4,-4.1744918E-2,-5.480908E-4,-1.2779216E-3,7.7310503E-3,-6.808541E-4,1.4909583E-1,-1.3110846E-4,-1.2864934E-1,1.113601E-3,2.0606983E-2,1.6724113E-3,-6.153425E-4,3.4823135E-2,1.7721441E-3,2.5834114E-4,-7.211372E-2,-1.7970651E-1,9.830914E-2,-1.5478794E-2,-1.4863431E-1,-3.4198087E-2,-1.5612729E-2,1.1742484E-1,-1.25463065E-2,-3.6179808E-3,1.0350096E-1,-5.589885E-2,3.2058295E-2,-2.0777047E-1,-6.245792E-5,-8.4078434E-4,-6.245792E-5,-3.869772E-4,-4.9003924E-4,9.045601E-6,-9.136855E-5,1.6399303E-4,6.148384E-4,1.6331335E-3,-2.307272E-4,-1.3689973E-3,-4.2505845E-2,3.578644E-2,-2.307272E-4,3.7295086E-4,1.3690984E-2,5.2532536E-4,-3.492859E-1,-2.9668419E-2,-2.501224E-2,-2.1417053E-1,1.1705508E-1,9.608307E-3,-7.991789E-2,1.0205946E-1,-1.5503705E-3,-4.2303486E-4,-1.55840395E-2,-4.5972512E-4,4.141289E-2,-1.3950782E-1,5.608815E-2,1.5078115E-1,3.3873264E-2,-1.3131347E-1,1.9402969E-1,1.1675006E-2,5.310424E-2,-7.108296E-2,-2.153173E-2,1.500042E-3,-6.745296E-2,-2.4464913E-1,-4.7933895E-4,-1.3110846E-4,4.4280765E-4,9.045601E-6,1.9044062E-4,3.7742455E-3,-1.3332772E-3,-3.8660949E-3,-7.3123425E-2,1.1341464E-1,9.776389E-2,-8.854006E-2,-2.3626871E-1,-5.0499205E-2,9.493977E-2,1.9944762E-3,-7.515071E-4,3.9556287E-2,8.143357E-4,-1.20351866E-1,1.2044369E-3,1.9015014E-2,-2.12303E-4,-4.7430993E-5,9.352723E-2,-3.0477043E-2,-1.6853125E-3,-5.3839845E-4,-8.900378E-2,9.035798E-2,1.1941897E-1,2.2123954E-1,9.079573E-3,1.7530206E-1,-2.215352E-2,-2.4917407E-1,9.040245E-4,2.3077624E-3,-6.849562E-2,5.5818934E-2,1.4542844E-3,-2.460395E-2,-8.166644E-2,1.1539162E-1,7.69792E-3,-4.358414E-4,-7.419171E-4,-1.3510227E-4,-1.4635322E-3,-2.7421059E-3,9.740293E-6,4.687339E-5,-2.0626178E-2,-1.289954E-1,1.6364368E-3,4.2730134E-2,1.3125701E-3,2.308324E-2,-1.2686637E-1,-4.0375963E-2,-2.8967562E-1,-1.7167726E-1,-7.129272E-3,-1.0713757E-3,1.06662765E-1,2.006121E-2,6.610259E-4,6.4172745E-3,-2.0594347E-2,3.6224024E-4,-3.5831347E-2,-1.445441E-3,2.5553582E-4,2.968937E-5,8.5145235E-5,1.2155134E-1,1.3777286E-4,-3.6925003E-2,-1.0614712E-3,-3.0763625E-4,1.2801492E-1,4.3557122E-2,1.686923E-1,7.338207E-2,2.6231527E-3,1.4223993E-3,-4.5775294E-2,5.140819E-2,5.172628E-4,2.0787292E-3,5.255134E-2,-8.302147E-4,-2.7900904E-3,-8.6556165E-4,-8.204567E-4,-1.3922721E-4,6.5835455E-4,2.0518422E-4,2.0450458E-2,-5.0539564E-4,-5.9267018E-2,-1.5310508E-1,1.5769862E-3,2.0518422E-4,-3.8419366E-5,1.5388816E-4,3.320119E-2,-5.7408664E-2,-1.548872E-1,-4.0289763E-2,-1.4552258E-2,8.0010016E-4,6.0582533E-4,-4.4707328E-4,-4.018855E-4,-1.4589024E-3,-8.908085E-4,-1.3734447E-2,-3.186578E-1,-2.4030164E-2,-8.10005E-2,-2.5488982E-1,2.9842436E-2,-2.1955822E-2,3.7886426E-2,1.213006E-1,-2.9521245E-3,9.0577273E-4,2.0518422E-4,-5.7629048E-5,-2.6799698E-4,-7.524212E-5,-4.5650898E-4,-3.1863452E-5,-1.0145683E-4,1.5388816E-4,5.0145463E-4,1.3313463E-3,-5.098146E-4,-6.6090673E-3,1.3873791E-3,-1.10535024E-4,5.829577E-2,-7.86344E-3,1.8567996E-1,8.0593344E-4,1.1015584E-1,-1.3934948E-2,3.7540916E-2,-8.160451E-2,1.3073148E-1,4.483683E-3,5.690608E-4,1.5388816E-4,2.8760193E-4,-2.2393762E-5,-1.0353464E-1,-3.1858284E-2,-2.1592624E-1,-4.9844943E-2,-3.7764907E-3,7.080829E-4,-8.496869E-2,-2.3469895E-2,-1.7806672E-1,-1.0075704E-3,-7.0314994E-4,-1.4216674E-2,3.3272903E-3,-3.4095452E-4,1.0118186E-3,-2.50471E-4,-1.36522E-1,-3.4861642E-1,-4.682668E-4,1.4375249E-4,-1.313091E-1,-2.4683953E-3,-1.8191622E-3,-3.6897575E-3,3.6586373E-4,8.17728E-5,-3.45515E-4,-1.000725E-4,4.361867E-4,1.1882384E-4,1.5281592E-3,9.3013436E-2,-1.4837873E-2,1.7841496E-4,-1.7430285E-2,1.2927293E-4,3.558466E-2,7.1290915E-4,3.229904E-4,-6.417544E-4,1.9647644E-3,7.340304E-4,1.1814911E-1,-8.8681874E-5,1.6929805E-2,-4.903215E-2,-2.6643107E-2,6.8543147E-4,-1.7511344E-2,-1.03319176E-1,5.522122E-4,1.427064E-3,-4.719524E-2,4.166075E-2,-3.841227E-2,-1.3578787E-1,-6.883716E-2,6.3949204E-3,-2.2306915E-3,-6.153425E-4,-5.7629048E-5,-6.791397E-4,-7.131666E-5,8.17728E-5,-1.0361794E-3,-3.5752653E-4,-1.10810244E-4,-2.7817494E-4,-1.9141792E-3,-7.4207125E-4,3.4866036E-5,-1.9514143E-4,4.7681926E-5,2.2274255E-6,4.7681926E-5,-1.8297037E-3,-1.7640498E-3,-5.253777E-4,-1.1689998E-3,-3.5824236E-3,-2.307272E-4,-1.3786016E-3,-3.8759303E-4,2.8185427E-2,1.0392548E-3,3.7309803E-2,-3.8419366E-5,-1.6626372E-4,-2.2872716E-4,-3.2727123E-5,3.9731836E-4,7.424384E-5,8.4334903E-4,1.4957668E-3,-3.8419366E-5,2.3083224E-4,-1.3457327E-4,-5.640465E-4,-3.6122723E-4,-3.8419366E-5,2.8772949E-5,-2.3327828E-4,-1.0903655E-3,-2.307272E-4,-7.8020606E-4,3.018725E-4,-2.0676255E-3,5.16079E-2,-5.8195303E-4,-3.0335665E-3,-3.645879E-4,-1.4532901E-3,-1.10268556E-1,4.336792E-3,4.3985926E-2,-4.54469E-2,-2.967298E-5,2.2274255E-6,5.865806E-4,1.0359287E-2,5.2164E-4,-1.10535024E-4,4.3429434E-5,-7.4443815E-5,3.2546688E-4,6.729774E-4,-1.4577031E-2,2.1570145E-4,-5.4800336E-4,-1.4732158E-3,6.2689465E-4,-2.9627135E-2,7.64855E-4,1.3821159E-2,1.3467848E-2,-6.922341E-4,-6.245792E-5,1.6072005E-4,-3.8419366E-5,-1.687475E-4,-4.9616247E-5,-4.688586E-4,2.482752E-4,-6.1436743E-3,-3.8419366E-5,2.0518422E-4,2.8772949E-5,-1.0109763E-4],"categories":[],"categories_nodes":[],"categories_segments":[],"categories_sizes":[],"default_left":[0,0,0,0,0,0,0,0,0,0,0,0,0,0,0,0,0,0,0,0,0,0,0,0,0,0,0,0,0,0,0,0,0,0,0,0,0,0,0,0,0,0,0,0,0,0,0,0,0,0,0,0,0,0,0,0,0,0,0,0,0,0,0,0,0,0,0,0,0,0,0,0,0,0,0,0,0,0,0,0,0,0,0,0,0,0,0,0,0,0,0,0,0,0,0,0,0,0,0,0,0,0,0,0,0,0,0,0,0,0,0,0,0,0,0,0,0,0,0,0,0,0,0,0,0,0,0,0,0,0,0,0,0,0,0,0,0,0,0,0,0,0,0,0,0,0,0,0,0,0,0,0,0,0,0,0,0,0,0,0,0,0,0,0,0,0,0,0,0,0,0,0,0,0,0,0,0,0,0,0,0,0,0,0,0,0,0,0,0,0,0,0,0,0,0,0,0,0,0,0,0,0,0,0,0,0,0,0,0,0,0,0,0,0,0,0,0,0,0,0,0,0,0,0,0,0,0,0,0,0,0,0,0,0,0,0,0,0,0,0,0,0,0,0,0,0,0,0,0,0,0,0,0,0,0,0,0,0,0,0,0,0,0,0,0,0,0,0,0,0,0,0,0,0,0,0,0,0,0,0,0,0,0,0,0,0,0,0,0,0,0,0,0,0,0,0,0,0,0,0,0,0,0,0,0,0,0,0,0,0,0,0,0,0,0,0,0,0,0,0,0,0,0,0,0,0,0,0,0,0,0,0,0,0,0,0,0,0,0,0,0,0,0,0,0,0,0,0,0,0,0,0,0,0,0,0,0,0,0,0,0,0,0,0,0,0,0,0,0,0,0,0,0,0,0,0,0,0,0,0,0,0,0,0,0,0,0,0,0,0,0,0,0,0,0,0,0,0,0,0,0,0,0,0,0,0,0,0,0,0,0,0,0,0,0,0,0,0,0,0,0,0,0,0,0,0,0,0,0,0,0,0,0,0,0,0,0,0,0,0,0,0,0,0,0,0,0,0,0,0,0,0,0,0,0,0,0,0,0,0,0,0,0,0,0,0,0,0,0,0,0,0,0,0,0,0,0,0,0,0,0,0,0],"id":0,"left_children":[1,3,5,7,9,11,13,15,17,19,21,23,25,-1,-1,27,29,31,33,35,37,39,41,43,45,47,49,51,53,55,57,-1,59,61,63,65,67,69,71,-1,-1,-1,-1,73,75,-1,77,79,81,-1,-1,83,85,87,89,-1,91,93,95,97,-1,-1,-1,99,101,-1,-1,-1,103,105,107,109,111,113,115,-1,117,-1,-1,-1,-1,-1,-1,119,121,123,125,127,129,131,133,-1,-1,-1,-1,-1,-1,135,-1,-1,-1,137,-1,-1,-1,-1,139,-1,-1,141,-1,143,-1,145,147,149,-1,-1,151,-1,-1,153,155,157,159,161,163,165,167,169,-1,171,173,175,177,-1,-1,-1,-1,-1,-1,-1,-1,-1,-1,-1,-1,179,181,-1,-1,183,-1,185,187,189,191,193,195,197,199,-1,-1,201,-1,203,205,207,209,211,213,215,217,219,221,223,-1,225,227,-1,-1,-1,-1,-1,229,-1,-1,231,233,235,237,239,241,243,-1,-1,245,247,249,-1,251,-1,-1,253,255,-1,-1,257,259,261,263,265,267,269,271,-1,-1,273,275,-1,277,279,281,283,-1,-1,-1,-1,-1,-1,-1,285,287,-1,289,-1,291,293,295,297,299,301,-1,303,305,-1,307,309,-1,311,-1,-1,-1,313,315,-1,317,-1,-1,319,321,323,325,-1,-1,327,329,-1,-1,331,-1,-1,-1,-1,-1,-1,-1,333,-1,335,337,-1,-1,-1,-1,339,341,343,345,347,-1,-1,-1,-1,-1,-1,349,351,353,355,357,359,361,363,365,367,-1,-1,-1,-1,-1,-1,-1,-1,-1,-1,-1,-1,369,-1,-1,371,373,375,-1,377,379,381,383,385,387,-1,-1,-1,-1,389,391,393,395,397,-1,399,401,403,-1,-1,405,407,-1,409,-1,411,413,-1,-1,415,417,-1,-1,-1,-1,-1,-1,-1,-1,-1,419,421,-1,423,-1,425,-1,-1,-1,-1,-1,427,-1,429,431,433,-1,435,437,-1,-1,439,441,443,445,447,449,-1,-1,-1,-1,-1,-1,-1,-1,-1,-1,-1,-1,-1,-1,-1,-1,-1,451,-1,-1,-1,-1,-1,-1,-1,453,-1,455,-1,-1,-1,-1,-1,-1,-1,-1,-1,-1,-1,-1,-1,-1,-1,-1,-1,-1,-1,-1,457,459,-1,461,-1,-1,463,465,467,469,-1,-1,-1,471,-1,-1,-1,-1,-1,-1,473,-1,-1,-1,-1,475,-1,477,479,-1,-1,-1,-1,-1,-1,-1,-1,481,-1,-1,-1,-1],"loss_changes":[1.0351809E0,1.1112232E0,1.0223756E0,6.8656814E-1,4.1174638E-1,3.383733E-1,8.713418E-2,9.530931E-1,5.0196767E-1,2.3790798E-1,8.7484E-2,2.1866506E-1,1.0573721E-1,0E0,0E0,5.883645E-1,1.8155903E-1,2.2509567E-1,1.1630809E-1,5.966088E-2,1.9200753E-1,3.1112432E-3,7.4542705E-3,1.7580852E-1,4.9176067E-2,9.1015816E-2,9.857975E-3,2.237307E0,7.6223E-1,8.521577E-2,3.2153845E-2,0E0,3.4428515E-2,1.6858738E-2,9.1867566E-2,1.0784477E-2,5.3582713E-3,5.302883E-2,9.581569E-2,0E0,0E0,0E0,0E0,1.3534316E-1,9.7021624E-2,0E0,9.312272E-3,4.36548E-2,6.999936E-3,0E0,0E0,6.873741E-1,4.641711E-1,9.0098625E-1,4.6240997E-1,0E0,5.530676E-3,5.618334E-4,1.8914398E-3,8.062376E-3,0E0,0E0,0E0,1.3982773E-2,4.9836757E-3,0E0,0E0,0E0,1.18538504E-4,2.237681E-2,2.5260001E-3,9.138614E-3,2.7598232E-2,7.220632E-2,3.3784512E-2,0E0,1.4586867E-2,0E0,0E0,0E0,0E0,0E0,0E0,1.2456819E-2,5.37024E-1,2.5147837E-1,5.489105E-2,4.0329033E-1,9.7618073E-1,3.955977E-1,2.5456786E-1,0E0,0E0,0E0,0E0,0E0,0E0,4.021723E-3,0E0,0E0,0E0,3.798213E-4,0E0,0E0,0E0,0E0,2.2114767E-3,0E0,0E0,7.346992E-4,0E0,2.4151206E-3,0E0,6.422892E-3,1.3620413E-2,4.5051565E-3,0E0,0E0,2.27468E-3,0E0,0E0,8.837513E-1,6.9305515E-1,1.21921E-1,2.1265598E-1,9.302795E-4,1.2560906E-3,2.2479843E-1,1.7977178E-1,4.12419E-1,0E0,1.4736672E-1,1.9907838E-1,4.1154195E-2,1.232152E-1,0E0,0E0,0E0,0E0,0E0,0E0,0E0,0E0,0E0,0E0,0E0,0E0,9.776093E-6,1.4414359E-3,0E0,0E0,1.9354845E-4,0E0,2.9057622E-2,4.2487755E-1,2.0364852E-1,3.7506962E-1,9.221476E-2,3.850974E-2,5.8855847E-2,1.2976848E-2,0E0,0E0,2.0535651E-4,0E0,8.5273355E-2,1.5790105E-2,1.7709959E-1,1.0395372E-1,1.877616E-1,2.646587E-1,1.34087205E-2,3.921381E-2,1.1119333E-1,2.146728E-1,3.558428E-3,0E0,1.5421994E-3,2.088964E-2,0E0,0E0,0E0,0E0,0E0,3.104975E-6,0E0,0E0,1.4986184E-1,4.981412E-2,1.9481748E-2,2.6258826E-2,2.745347E-1,3.3625815E-2,4.1750222E-2,0E0,0E0,9.252701E-3,6.052534E-3,1.9357681E-2,0E0,2.388882E-4,0E0,0E0,3.4031868E-2,3.3622272E-3,0E0,0E0,3.7235431E-3,4.3770626E-2,8.5161805E-2,1.7852724E-2,1.1148396E-1,2.14473E-2,5.892846E-2,2.4367034E-2,0E0,0E0,1.8155649E-3,1.1242777E-3,0E0,1.1550181E-2,1.493442E-1,2.0847067E-2,3.2537838E-4,0E0,0E0,0E0,0E0,0E0,0E0,0E0,5.734336E-2,5.1178336E-2,0E0,1.824817E-2,0E0,1.28768785E-2,8.977428E-3,1.0454673E-2,3.7729168E-1,3.1889868E-1,5.5886814E-3,0E0,3.8694054E-2,1.3249872E-2,0E0,1.1487728E-3,2.0387745E-4,0E0,1.1367775E-3,0E0,0E0,0E0,7.8240706E-4,1.5950352E-3,0E0,3.498272E-3,0E0,0E0,2.3901954E-2,1.1068577E-2,1.4967322E-2,7.859844E-2,0E0,0E0,6.575175E-2,9.991341E-2,0E0,0E0,9.528175E-5,0E0,0E0,0E0,0E0,0E0,0E0,0E0,8.185911E-4,0E0,9.012717E-2,1.3843638E-1,0E0,0E0,0E0,0E0,1.6954888E-2,1.3906807E-2,5.897999E-3,4.480308E-3,1.5111393E-3,0E0,0E0,0E0,0E0,0E0,0E0,1.1930789E-3,1.9795036E-1,5.926204E-3,9.054522E-2,1.24358416E-1,1.3914844E-4,7.0773694E-4,8.232603E-4,1.69878E-2,1.9947642E-3,0E0,0E0,0E0,0E0,0E0,0E0,0E0,0E0,0E0,0E0,0E0,0E0,1.0709553E-3,0E0,0E0,7.0961565E-4,1.1119324E-2,4.973173E-3,0E0,1.7221421E-2,9.496237E-3,1.575514E-2,1.9067168E-2,1.1618733E-3,3.654906E-2,0E0,0E0,0E0,0E0,5.569586E-2,6.975368E-2,1.7129183E-3,7.573815E-3,3.3906658E-4,0E0,4.5559555E-3,1.7651031E-4,2.4352372E-3,0E0,0E0,5.369509E-4,1.2357974E-5,0E0,5.141966E-5,0E0,1.7528415E-2,4.288006E-2,0E0,0E0,6.7460686E-3,1.2216997E-2,0E0,0E0,0E0,0E0,0E0,0E0,0E0,0E0,0E0,8.887216E-3,3.4453697E-5,0E0,1.5629892E-4,0E0,4.057302E-4,0E0,0E0,0E0,0E0,0E0,4.3886304E-3,0E0,7.277706E-4,2.9004551E-4,5.0965813E-4,0E0,6.600722E-4,2.5310218E-3,0E0,0E0,2.143798E-2,4.891405E-3,7.522341E-3,1.2708038E-2,7.627069E-2,5.0718676E-2,0E0,0E0,0E0,0E0,0E0,0E0,0E0,0E0,0E0,0E0,0E0,0E0,0E0,0E0,0E0,0E0,0E0,7.665496E-6,0E0,0E0,0E0,0E0,0E0,0E0,0E0,2.651601E-3,0E0,4.1685863E-3,0E0,0E0,0E0,0E0,0E0,0E0,0E0,0E0,0E0,0E0,0E0,0E0,0E0,0E0,0E0,0E0,0E0,0E0,0E0,0E0,1.3573472E-4,5.0128624E-4,0E0,1.7344892E-3,0E0,0E0,2.4810955E-2,2.1676172E-2,1.3648013E-2,1.6340947E-2,0E0,0E0,0E0,5.746831E-4,0E0,0E0,0E0,0E0,0E0,0E0,3.383326E-5,0E0,0E0,0E0,0E0,2.7472372E-3,0E0,2.1301936E-3,5.670061E-4,0E0,0E0,0E0,0E0,0E0,0E0,0E0,0E0,1.7220063E-4,0E0,0E0,0E0,0E0],"parents":[2147483647,0,0,1,1,2,2,3,3,4,4,5,5,6,6,7,7,8,8,9,9,10,10,11,11,12,12,15,15,16,16,17,17,18,18,19,19,20,20,21,21,22,22,23,23,24,24,25,25,26,26,27,27,28,28,29,29,30,30,32,32,33,33,34,34,35,35,36,36,37,37,38,38,43,43,44,44,46,46,47,47,48,48,51,51,52,52,53,53,54,54,56,56,57,57,58,58,59,59,63,63,64,64,68,68,69,69,70,70,71,71,72,72,73,73,74,74,76,76,83,83,84,84,85,85,86,86,87,87,88,88,89,89,90,90,97,97,101,101,106,106,109,109,111,111,113,113,114,114,115,115,118,118,121,121,122,122,123,123,124,124,125,125,126,126,127,127,128,128,129,129,131,131,132,132,133,133,134,134,147,147,148,148,151,151,153,153,154,154,155,155,156,156,157,157,158,158,159,159,160,160,163,163,165,165,166,166,167,167,168,168,169,169,170,170,171,171,172,172,173,173,174,174,175,175,177,177,178,178,184,184,187,187,188,188,189,189,190,190,191,191,192,192,193,193,196,196,197,197,198,198,200,200,203,203,204,204,207,207,208,208,209,209,210,210,211,211,212,212,213,213,214,214,217,217,218,218,220,220,221,221,222,222,223,223,231,231,232,232,234,234,236,236,237,237,238,238,239,239,240,240,241,241,243,243,244,244,246,246,247,247,249,249,253,253,254,254,256,256,259,259,260,260,261,261,262,262,265,265,266,266,269,269,277,277,279,279,280,280,285,285,286,286,287,287,288,288,289,289,296,296,297,297,298,298,299,299,300,300,301,301,302,302,303,303,304,304,305,305,318,318,321,321,322,322,323,323,325,325,326,326,327,327,328,328,329,329,330,330,335,335,336,336,337,337,338,338,339,339,341,341,342,342,343,343,346,346,347,347,349,349,351,351,352,352,355,355,356,356,366,366,367,367,369,369,371,371,377,377,379,379,380,380,381,381,383,383,384,384,387,387,388,388,389,389,390,390,391,391,392,392,410,410,418,418,420,420,441,441,442,442,444,444,447,447,448,448,449,449,450,450,454,454,461,461,466,466,468,468,469,469,478,478],"right_children":[2,4,6,8,10,12,14,16,18,20,22,24,26,-1,-1,28,30,32,34,36,38,40,42,44,46,48,50,52,54,56,58,-1,60,62,64,66,68,70,72,-1,-1,-1,-1,74,76,-1,78,80,82,-1,-1,84,86,88,90,-1,92,94,96,98,-1,-1,-1,100,102,-1,-1,-1,104,106,108,110,112,114,116,-1,118,-1,-1,-1,-1,-1,-1,120,122,124,126,128,130,132,134,-1,-1,-1,-1,-1,-1,136,-1,-1,-1,138,-1,-1,-1,-1,140,-1,-1,142,-1,144,-1,146,148,150,-1,-1,152,-1,-1,154,156,158,160,162,164,166,168,170,-1,172,174,176,178,-1,-1,-1,-1,-1,-1,-1,-1,-1,-1,-1,-1,180,182,-1,-1,184,-1,186,188,190,192,194,196,198,200,-1,-1,202,-1,204,206,208,210,212,214,216,218,220,222,224,-1,226,228,-1,-1,-1,-1,-1,230,-1,-1,232,234,236,238,240,242,244,-1,-1,246,248,250,-1,252,-1,-1,254,256,-1,-1,258,260,262,264,266,268,270,272,-1,-1,274,276,-1,278,280,282,284,-1,-1,-1,-1,-1,-1,-1,286,288,-1,290,-1,292,294,296,298,300,302,-1,304,306,-1,308,310,-1,312,-1,-1,-1,314,316,-1,318,-1,-1,320,322,324,326,-1,-1,328,330,-1,-1,332,-1,-1,-1,-1,-1,-1,-1,334,-1,336,338,-1,-1,-1,-1,340,342,344,346,348,-1,-1,-1,-1,-1,-1,350,352,354,356,358,360,362,364,366,368,-1,-1,-1,-1,-1,-1,-1,-1,-1,-1,-1,-1,370,-1,-1,372,374,376,-1,378,380,382,384,386,388,-1,-1,-1,-1,390,392,394,396,398,-1,400,402,404,-1,-1,406,408,-1,410,-1,412,414,-1,-1,416,418,-1,-1,-1,-1,-1,-1,-1,-1,-1,420,422,-1,424,-1,426,-1,-1,-1,-1,-1,428,-1,430,432,434,-1,436,438,-1,-1,440,442,444,446,448,450,-1,-1,-1,-1,-1,-1,-1,-1,-1,-1,-1,-1,-1,-1,-1,-1,-1,452,-1,-1,-1,-1,-1,-1,-1,454,-1,456,-1,-1,-1,-1,-1,-1,-1,-1,-1,-1,-1,-1,-1,-1,-1,-1,-1,-1,-1,-1,458,460,-1,462,-1,-1,464,466,468,470,-1,-1,-1,472,-1,-1,-1,-1,-1,-1,474,-1,-1,-1,-1,476,-1,478,480,-1,-1,-1,-1,-1,-1,-1,-1,482,-1,-1,-1,-1],"split_conditions":[1.5719514E-2,1.5719514E-2,1.978881E-2,-2.7559E-3,-6.078294E-3,-6.762441E-3,3.298353E-4,-2.7559E-3,1.7152771E-2,1.3898182E-2,-3.316805E-5,8.89094E-3,1.6163602E-3,-3.639176E-3,-1.957023E-4,-5.5664903E-3,-2.8363764E-3,8.097913E-3,-1.8768856E-2,-1.8846802E-2,2.8716365E-2,9.399281E-3,1.2935266E-3,-8.501405E-3,-7.282305E-3,1.7409155E-3,-2.0265672E-3,-5.5664903E-3,-2.0605857E-3,-7.297531E-3,-7.3542977E-3,-3.2670377E-3,5.4306355E-3,1.4204911E-2,1.0684566E-2,1.1342791E-3,-5.6375917E-3,-1.94489E-2,-1.1537244E-2,2.3159746E-3,1.2128557E-3,4.389426E-4,-4.2447893E-4,-4.04512E-2,-6.2838723E-3,-3.869772E-4,-3.6597308E-3,-1.3321937E-3,5.7483674E-3,6.442084E-4,-1.9138058E-4,5.1271426E-4,1.1176958E-2,5.6039467E-3,-1.0834282E-2,1.2406148E-3,-6.744715E-3,-7.369196E-2,-6.630465E-3,-4.9327845E-3,8.1099174E-4,-3.2522253E-4,7.6118944E-4,4.0682775E-4,-3.3714727E-3,2.0722805E-3,6.8554544E-4,7.602314E-4,1.5150652E-3,-2.4074304E-3,-9.922932E-3,2.3338014E-2,1.1324755E-2,2.4367906E-3,-2.8253369E-2,1.7105484E-3,5.5515417E-4,1.7686775E-3,9.777969E-4,2.3510577E-3,1.0060036E-3,-4.2447893E-4,4.1220724E-4,-2.9575399E-3,2.8730452E-3,-2.2859823E-2,1.0688649E-2,-3.0250866E-2,2.1831544E-2,9.122638E-3,-2.1685375E-2,-6.151076E-4,-8.939469E-5,1.9001408E-3,9.208223E-4,-2.2393762E-5,4.8927276E-4,-1.2295775E-2,-7.417035E-5,1.8569366E-3,8.4093626E-4,5.323221E-3,3.46196E-4,9.740293E-6,1.5388816E-4,5.214791E-4,1.46941105E-2,-5.480908E-4,-1.2779216E-3,3.298353E-4,-6.808541E-4,-2.8714767E-2,-1.3110846E-4,-1.3264634E-3,1.5289041E-3,-1.5482369E-2,1.6724113E-3,-6.153425E-4,-6.3468623E-3,1.7721441E-3,2.5834114E-4,2.7611274E-3,-3.5833847E-3,-7.577547E-3,7.8682567E-4,8.114945E-3,-1.0547605E-2,-6.203981E-3,8.4694184E-4,1.2724509E-2,-3.6179808E-3,-5.6966124E-5,-2.6235975E-2,6.31967E-3,2.1092828E-2,-6.245792E-5,-8.4078434E-4,-6.245792E-5,-3.869772E-4,-4.9003924E-4,9.045601E-6,-9.136855E-5,1.6399303E-4,6.148384E-4,1.6331335E-3,-2.307272E-4,-1.3689973E-3,1.1394681E-2,7.945596E-3,-2.307272E-4,3.7295086E-4,5.887331E-3,5.2532536E-4,2.6470001E-3,-1.1708437E-2,-4.9471483E-3,7.774896E-3,4.4679786E-3,-4.2557705E-2,-8.247132E-3,-4.7712796E-3,-1.5503705E-3,-4.2303486E-4,3.9921445E-3,-4.5972512E-4,2.3541115E-2,5.3978306E-3,2.2393536E-2,-9.038856E-3,-1.5901664E-2,-2.6216733E-3,-1.0479206E-2,2.0186403E-3,2.4742526E-3,6.08804E-3,-4.1618613E-3,1.500042E-3,1.4204911E-2,2.4427626E-2,-4.7933895E-4,-1.3110846E-4,4.4280765E-4,9.045601E-6,1.9044062E-4,7.052636E-3,-1.3332772E-3,-3.8660949E-3,1.2339206E-2,5.746607E-4,-8.386159E-3,9.3266123E-4,-1.1962393E-2,5.887331E-3,9.928896E-3,1.9944762E-3,-7.515071E-4,-6.7205587E-3,-2.0304294E-3,4.0109716E-3,1.2044369E-3,8.294696E-3,-2.12303E-4,-4.7430993E-5,-3.1068749E-3,-1.0416778E-2,-1.6853125E-3,-5.3839845E-4,-1.0484322E-2,-6.395813E-3,-2.1765606E-2,-9.628313E-3,1.4832546E-2,-3.0003786E-3,6.964321E-3,-2.8104952E-3,9.040245E-4,2.3077624E-3,1.08486535E-2,4.2412607E-3,1.4542844E-3,4.706822E-5,5.51428E-3,9.881332E-3,1.0118802E-3,-4.358414E-4,-7.419171E-4,-1.3510227E-4,-1.4635322E-3,-2.7421059E-3,9.740293E-6,4.687339E-5,4.586279E-3,1.7315876E-2,1.6364368E-3,3.0792686E-3,1.3125701E-3,-1.14832595E-2,-5.2868435E-3,-2.4076795E-2,1.9898422E-2,-1.8745866E-2,-3.4233768E-2,-1.0713757E-3,-7.74626E-3,9.0711175E-5,6.610259E-4,-1.0859034E-2,-6.630465E-3,3.6224024E-4,-7.762904E-3,-1.445441E-3,2.5553582E-4,2.968937E-5,3.9921445E-3,-1.330944E-2,1.3777286E-4,-8.0974335E-3,-1.0614712E-3,-3.0763625E-4,1.8596238E-2,3.472987E-3,4.914821E-3,1.7398646E-2,2.6231527E-3,1.4223993E-3,-2.1299673E-2,3.9274963E-3,5.172628E-4,2.0787292E-3,9.143811E-3,-8.302147E-4,-2.7900904E-3,-8.6556165E-4,-8.204567E-4,-1.3922721E-4,6.5835455E-4,2.0518422E-4,8.612935E-3,-5.0539564E-4,-2.176718E-3,-2.7063122E-2,1.5769862E-3,2.0518422E-4,-3.8419366E-5,1.5388816E-4,-3.7938815E-3,2.2901678E-3,-9.518247E-3,-2.0805905E-3,6.4142764E-4,8.0010016E-4,6.0582533E-4,-4.4707328E-4,-4.018855E-4,-1.4589024E-3,-8.908085E-4,-3.4986003E-3,-3.9639245E-3,6.4142764E-4,-1.350957E-2,1.0317173E-3,4.938526E-3,3.644535E-4,-6.113575E-3,3.8218E-3,1.3228183E-2,9.0577273E-4,2.0518422E-4,-5.7629048E-5,-2.6799698E-4,-7.524212E-5,-4.5650898E-4,-3.1863452E-5,-1.0145683E-4,1.5388816E-4,5.0145463E-4,1.3313463E-3,-5.098146E-4,5.6457412E-3,1.3873791E-3,-1.10535024E-4,-3.7434467E-3,1.2935266E-3,-1.0335256E-2,8.0593344E-4,7.686556E-3,-1.3218181E-2,2.347122E-3,-7.7846926E-3,-6.901441E-3,2.9092582E-2,5.690608E-4,1.5388816E-4,2.8760193E-4,-2.2393762E-5,-5.8457404E-3,1.3196483E-2,1.3498358E-2,1.1600825E-2,3.5552725E-3,7.080829E-4,1.37999E-2,-8.708682E-3,1.1091112E-2,-1.0075704E-3,-7.0314994E-4,2.787391E-3,-2.4853442E-3,-3.4095452E-4,-2.4853442E-3,-2.50471E-4,6.4098174E-3,6.8860636E-3,-4.682668E-4,1.4375249E-4,-2.4853442E-3,-1.0749476E-2,-1.8191622E-3,-3.6897575E-3,3.6586373E-4,8.17728E-5,-3.45515E-4,-1.000725E-4,4.361867E-4,1.1882384E-4,1.5281592E-3,-5.3989138E-3,4.8164786E-3,1.7841496E-4,3.9921445E-3,1.2927293E-4,-9.564679E-3,7.1290915E-4,3.229904E-4,-6.417544E-4,1.9647644E-3,7.340304E-4,-1.05644325E-2,-8.8681874E-5,6.796424E-3,3.4779357E-3,7.736535E-3,6.8543147E-4,-1.6018054E-2,-6.3138227E-3,5.522122E-4,1.427064E-3,5.038507E-4,-1.7529424E-2,2.1383608E-2,4.562522E-3,1.2357803E-2,5.0938465E-3,-2.2306915E-3,-6.153425E-4,-5.7629048E-5,-6.791397E-4,-7.131666E-5,8.17728E-5,-1.0361794E-3,-3.5752653E-4,-1.10810244E-4,-2.7817494E-4,-1.9141792E-3,-7.4207125E-4,3.4866036E-5,-1.9514143E-4,4.7681926E-5,2.2274255E-6,4.7681926E-5,2.787391E-3,-1.7640498E-3,-5.253777E-4,-1.1689998E-3,-3.5824236E-3,-2.307272E-4,-1.3786016E-3,-3.8759303E-4,3.4779357E-3,1.0392548E-3,6.4226277E-3,-3.8419366E-5,-1.6626372E-4,-2.2872716E-4,-3.2727123E-5,3.9731836E-4,7.424384E-5,8.4334903E-4,1.4957668E-3,-3.8419366E-5,2.3083224E-4,-1.3457327E-4,-5.640465E-4,-3.6122723E-4,-3.8419366E-5,2.8772949E-5,-2.3327828E-4,-1.0903655E-3,-2.307272E-4,-7.8020606E-4,3.018725E-4,-3.0003786E-3,5.676366E-3,-5.8195303E-4,1.4536651E-2,-3.645879E-4,-1.4532901E-3,-3.606965E-3,1.1261711E-2,1.1425418E-3,-1.1141862E-2,-2.967298E-5,2.2274255E-6,5.865806E-4,-1.5369483E-2,5.2164E-4,-1.10535024E-4,4.3429434E-5,-7.4443815E-5,3.2546688E-4,6.729774E-4,1.3942075E-4,2.1570145E-4,-5.4800336E-4,-1.4732158E-3,6.2689465E-4,-1.0333589E-2,7.64855E-4,-9.486541E-3,6.4937053E-3,-6.922341E-4,-6.245792E-5,1.6072005E-4,-3.8419366E-5,-1.687475E-4,-4.9616247E-5,-4.688586E-4,2.482752E-4,7.736535E-3,-3.8419366E-5,2.0518422E-4,2.8772949E-5,-1.0109763E-4],"split_indices":[2007,2006,2006,311,116,767,1,310,164,435,215,618,602,0,0,759,1015,69,6,1875,1353,241,1,1496,24,214,4,758,1765,1052,1615,0,366,0,1778,1037,117,1432,91,0,0,0,0,96,992,0,1366,360,0,0,0,1878,899,1798,502,0,183,1291,0,5,0,0,0,812,1,0,0,0,0,1015,117,59,1,684,33,0,0,0,0,0,0,0,0,3,851,1566,704,1018,2019,46,383,0,0,0,0,0,0,12,0,0,0,0,0,0,0,0,1,0,0,0,0,243,0,37,36,3,0,0,346,0,0,1430,884,356,684,1,12,1981,729,856,0,183,1116,1,672,0,0,0,0,0,0,0,0,0,0,0,0,0,0,0,0,0,0,1,175,798,1260,1908,1177,1259,3,0,0,1,0,1743,1,1441,910,343,1028,3,80,1228,1215,4,0,0,127,0,0,0,0,0,0,0,0,1196,5,43,36,1511,0,55,0,0,114,3,154,0,0,0,0,638,4,0,0,13,617,1952,1104,1892,1,257,9,0,0,1,0,0,36,1697,0,0,0,0,0,0,0,0,0,1990,21,0,0,0,12,5,173,2040,1874,19,0,316,14,0,12,0,0,4,0,0,0,0,1,0,5,0,0,302,692,36,1631,0,0,1874,1306,0,0,0,0,0,0,0,0,0,0,0,0,1508,1019,0,0,0,0,4,35,6,4,0,0,0,0,0,0,0,9,1898,0,162,75,1,73,3,645,20,0,0,0,0,0,0,0,0,0,0,0,0,0,0,0,265,1,7,0,75,6,1,1025,1,126,0,0,0,0,555,1946,0,78,16,0,20,6,1,0,0,0,0,0,1,0,55,846,0,0,1,7,0,0,0,0,0,0,0,0,0,490,0,0,0,0,6,0,0,0,0,0,119,0,0,0,0,0,3,3,0,0,15,3,60,158,1391,738,0,0,0,0,0,0,0,0,0,0,0,0,0,0,0,0,0,0,0,0,0,0,0,0,0,0,0,1,0,0,0,0,0,0,0,0,0,0,0,0,0,0,0,0,0,0,0,0,0,17,0,0,0,0,1331,47,1573,85,0,0,0,6,0,0,0,0,0,0,0,0,0,0,0,16,0,12,0,0,0,0,0,0,0,0,0,0,0,0,0,0],"split_type":[0,0,0,0,0,0,0,0,0,0,0,0,0,0,0,0,0,0,0,0,0,0,0,0,0,0,0,0,0,0,0,0,0,0,0,0,0,0,0,0,0,0,0,0,0,0,0,0,0,0,0,0,0,0,0,0,0,0,0,0,0,0,0,0,0,0,0,0,0,0,0,0,0,0,0,0,0,0,0,0,0,0,0,0,0,0,0,0,0,0,0,0,0,0,0,0,0,0,0,0,0,0,0,0,0,0,0,0,0,0,0,0,0,0,0,0,0,0,0,0,0,0,0,0,0,0,0,0,0,0,0,0,0,0,0,0,0,0,0,0,0,0,0,0,0,0,0,0,0,0,0,0,0,0,0,0,0,0,0,0,0,0,0,0,0,0,0,0,0,0,0,0,0,0,0,0,0,0,0,0,0,0,0,0,0,0,0,0,0,0,0,0,0,0,0,0,0,0,0,0,0,0,0,0,0,0,0,0,0,0,0,0,0,0,0,0,0,0,0,0,0,0,0,0,0,0,0,0,0,0,0,0,0,0,0,0,0,0,0,0,0,0,0,0,0,0,0,0,0,0,0,0,0,0,0,0,0,0,0,0,0,0,0,0,0,0,0,0,0,0,0,0,0,0,0,0,0,0,0,0,0,0,0,0,0,0,0,0,0,0,0,0,0,0,0,0,0,0,0,0,0,0,0,0,0,0,0,0,0,0,0,0,0,0,0,0,0,0,0,0,0,0,0,0,0,0,0,0,0,0,0,0,0,0,0,0,0,0,0,0,0,0,0,0,0,0,0,0,0,0,0,0,0,0,0,0,0,0,0,0,0,0,0,0,0,0,0,0,0,0,0,0,0,0,0,0,0,0,0,0,0,0,0,0,0,0,0,0,0,0,0,0,0,0,0,0,0,0,0,0,0,0,0,0,0,0,0,0,0,0,0,0,0,0,0,0,0,0,0,0,0,0,0,0,0,0,0,0,0,0,0,0,0,0,0,0,0,0,0,0,0,0,0,0,0,0,0,0,0,0,0,0,0,0,0,0,0,0,0,0,0,0,0,0,0,0,0,0,0,0,0,0,0,0,0,0,0,0,0,0,0,0,0],"sum_hessian":[9.68E2,8.63E2,1.05E2,7.85E2,7.8E1,1E2,5E0,7.33E2,5.2E1,5.2E1,2.6E1,6.1E1,3.9E1,4E0,1E0,6.96E2,3.7E1,1.2E1,4E1,1.8E1,3.4E1,2.4E1,2E0,3.9E1,2.2E1,3.5E1,4E0,3.29E2,3.67E2,1.2E1,2.5E1,2E0,1E1,5E0,3.5E1,1E1,8E0,1.9E1,1.5E1,2E1,4E0,1E0,1E0,2.3E1,1.6E1,1E0,2.1E1,3.3E1,2E0,2E0,2E0,2.12E2,1.17E2,2.02E2,1.65E2,4E0,8E0,2.3E1,2E0,8E0,2E0,4E0,1E0,3.2E1,3E0,8E0,2E0,6E0,2E0,9E0,1E1,5E0,1E1,1.7E1,6E0,8E0,8E0,1.4E1,7E0,2.8E1,5E0,1E0,1E0,7E0,2.05E2,9.9E1,1.8E1,1.21E2,8.1E1,1.34E2,3.1E1,4E0,4E0,2E1,3E0,1E0,1E0,4E0,4E0,2.8E1,4E0,2E0,1E0,1E0,1E0,3E0,6E0,3E0,7E0,3E0,2E0,9E0,1E0,1E1,7E0,4E0,2E0,1E0,7E0,6E0,1E0,7.5E1,1.3E2,7.3E1,2.6E1,1E1,8E0,3E1,9.1E1,7.3E1,8E0,1.7E1,1.17E2,5E0,2.6E1,1E0,3E0,1E0,1E0,5E0,1E0,1E0,2E0,2E0,7E0,1E0,9E0,3E0,4E0,1E0,3E0,4E0,3E0,9E0,6.6E1,2.4E1,1.06E2,6E1,1.3E1,1.7E1,9E0,9E0,1E0,4E0,4E0,2.1E1,9E0,3.3E1,5.8E1,5.3E1,2E1,8E0,9E0,1.4E1,1.03E2,4E0,1E0,6E0,2E1,2E0,1E0,3E0,1E0,2E0,2E0,2E0,7E0,5.1E1,1.5E1,8E0,1.6E1,9.3E1,1.3E1,4.9E1,1.1E1,3E0,1E1,6E0,1.1E1,7E0,2E0,2E0,2E0,1.2E1,9E0,6E0,3E0,6E0,2.7E1,4.2E1,1.6E1,4.6E1,7E0,1.1E1,9E0,3E0,5E0,3E0,6E0,6E0,8E0,9.8E1,5E0,2E0,2E0,5E0,1E0,6E0,1.4E1,1E0,1E0,2.7E1,2.4E1,8E0,7E0,5E0,3E0,8E0,8E0,4.9E1,4.4E1,8E0,5E0,4.2E1,7E0,5E0,5E0,4E0,2E0,3E0,8E0,1E0,1E0,3E0,9E0,1E0,8E0,4E0,2E0,1.4E1,1.3E1,1.9E1,2.3E1,9E0,7E0,2E1,2.6E1,2E0,5E0,5E0,6E0,7E0,2E0,2E0,1E0,4E0,2E0,3E0,5E0,7.6E1,2.2E1,3E0,2E0,1E0,1E0,1.1E1,1.6E1,1.8E1,6E0,3E0,4E0,2E0,1E0,2E0,6E0,2E0,6E0,4.4E1,5E0,2.2E1,2.2E1,2E0,6E0,8E0,3.4E1,6E0,1E0,2E0,3E0,2E0,2E0,2E0,1E0,2E0,1E0,2E0,7E0,5E0,3E0,1.3E1,1E0,1E1,3E0,1.5E1,4E0,1.6E1,7E0,6E0,1.4E1,9E0,1.7E1,4E0,1E0,2E0,1E0,2.8E1,4.8E1,1.3E1,9E0,6E0,5E0,8E0,8E0,1.1E1,7E0,2E0,4E0,2E0,1E0,3E0,3E0,7E0,3.7E1,3E0,2E0,1.3E1,9E0,1.5E1,7E0,1E0,1E0,2E0,4E0,6E0,2E0,1.4E1,2E1,4E0,2E0,2E0,1E0,5E0,5E0,2E0,1E0,1.3E1,2E0,1.5E1,1E0,4E0,3E0,2E0,4E0,4E0,1E1,2E0,7E0,7E0,1E1,1E1,1.8E1,2.4E1,2.4E1,1.2E1,1E0,3E0,6E0,5E0,1E0,5E0,3E0,3E0,5E0,9E0,2E0,1E0,3E0,1E0,1E0,1E0,2E0,4E0,3E0,2E0,3.5E1,1E0,1.2E1,4E0,5E0,1.6E1,4E0,1E0,3E0,1E0,1E0,4E0,1E0,9E0,6E0,1E0,3E0,1E0,2E0,1E0,1E0,1E0,3E0,9E0,1E0,5E0,2E0,2E0,8E0,6E0,4E0,2E0,1.6E1,1.5E1,9E0,1.4E1,1E1,1E0,1E0,1E0,4E0,3E0,1E0,1E0,1E0,5E0,3E0,3E0,1E0,7E0,8E0,3E0,6E0,6E0,8E0,3E0,7E0,1E0,3E0,1E0,2E0,3E0,3E0,5E0,3E0,1E0,2E0,1E0,2E0],"tree_param":{"num_deleted":"0","num_feature":"2048","num_nodes":"483","size_leaf_vector":"1"}},{"base_weights":[3.8265688E-3,-5.9953714E-3,1.12938434E-1,-1.9085368E-2,7.2280526E-2,1.441163E-1,-1.8831694E-2,-6.1690606E-2,1.3061566E-2,-1.4768527E-1,9.251624E-2,1.58522E-1,-1.11599684E-1,3.0337444E-2,-1.7392346E-1,-1.0381013E-1,2.7147368E-2,3.1889256E-2,-4.7021385E-2,-1.6363038E-2,-3.0199934E-3,1.450229E-1,1.5110502E-2,1.979177E-1,8.95404E-2,-1.3581655E-3,-1.9474536E-4,4.9483385E-2,-4.9976826E-2,-2.038912E-3,-4.2010157E-4,1.2388362E-1,-1.2594976E-1,7.031622E-2,-2.9749991E-2,7.3559724E-2,3.0906294E-3,4.921795E-2,-9.9466674E-2,1.0289747E-3,-8.464673E-4,1.6478324E-1,2.5851768E-2,-6.6365555E-2,6.1931748E-2,1.4257214E-3,2.2426209E-1,5.949706E-3,1.4882307E-1,9.828463E-5,6.312542E-4,-6.1571656E-4,-1.3393581E-4,1.7153773E-1,-2.0333554E-1,6.63809E-2,-1.4875712E-1,1.113925E-2,1.2912188E-1,-1.0705244E-1,5.9445973E-2,1.20635785E-1,3.821492E-2,1.1013539E-1,-1.115862E-2,-2.9832263E-2,1.2567775E-1,-1.6785172E-1,-2.3922933E-2,-4.577592E-3,1.7393787E-1,1.00588E-3,-3.1224366E-2,-1.19537026E-1,-2.1662164E-2,9.556053E-2,-6.7018434E-2,2.4094037E-3,1.3407047E-3,-8.3453377E-4,4.9907535E-2,1.6983598E-3,9.249982E-4,5.247444E-3,1.9199604E-3,-6.270978E-4,-2.422935E-3,-9.6731655E-2,1.4894888E-1,-2.6494628E-1,-1.2184496E-1,-3.28114E-2,7.451795E-2,6.09989E-2,1.8491705E-1,-1.331399E-1,6.319168E-2,1.5279042E-3,5.6991973E-3,3.4106538E-2,1.5655805E-1,4.7942977E-3,1.2306767E-1,1.1815362E-2,1.5241194E-1,-9.062208E-2,1.2645089E-2,-1.1164941E-1,3.9821062E-2,1.8258262E-3,6.769395E-2,7.2300975E-4,-2.3531052E-1,-5.65876E-2,3.795587E-2,-6.440147E-4,8.7447016E-4,1.5066127E-1,2.4673033E-3,-3.1058714E-3,-5.1536766E-4,-1.3762182E-3,-4.3521773E-2,3.680082E-4,-3.874292E-2,1.5302989E-1,5.366964E-2,-1.1329447E-3,-3.987789E-3,4.3699145E-4,7.950246E-4,-6.908919E-4,7.6960353E-4,-1.6831141E-2,-1.7242437E-3,1.7053289E-3,4.6959592E-4,-8.6884044E-2,-3.1845084E-1,-1.6216922E-1,-6.486511E-2,1.847378E-2,-9.1847576E-2,1.5868507E-2,1.4029754E-3,-1.6683167E-2,9.076358E-2,5.510008E-4,1.995266E-3,-4.251667E-2,-1.7259629E-1,8.678317E-4,-3.7913916E-5,-6.209047E-4,2.0904569E-2,1.3489492E-1,-1.5034756E-2,3.4184493E-2,1.6920555E-1,5.267949E-2,-5.432572E-2,1.406015E-1,-3.484705E-2,5.5374636E-4,-2.539513E-2,6.342668E-2,1.8709373E-1,7.464327E-2,-1.2198194E-1,-3.798954E-2,6.0894947E-2,-1.5768927E-3,-4.327966E-2,1.314774E-1,-1.0984741E-2,1.03397666E-4,7.239539E-4,7.148711E-2,-9.849132E-4,-4.230637E-2,-2.7005863E-1,-8.4581636E-2,-2.6210768E-2,7.4152745E-2,-2.755031E-2,3.5954852E-4,1.551603E-1,2.0760417E-2,-3.7352368E-4,-1.3045281E-4,-5.2237377E-4,-7.406771E-5,-4.173409E-4,1.6885435E-3,5.9821364E-4,7.558329E-2,-3.0967124E-2,2.4517477E-4,-2.1662035E-4,-4.770398E-5,3.7629206E-3,-3.3924982E-4,-4.076436E-3,-1.2184243E-3,-1.2725443E-2,-4.0746657E-3,-2.5259244E-1,-9.638488E-2,-2.1996416E-1,-8.55639E-2,1.12948604E-1,-9.382885E-3,6.956866E-4,-3.8060613E-4,-1.2726502E-3,3.2064246E-4,-8.343294E-5,-4.31556E-4,1.5350322E-4,9.6782687E-4,1.5286237E-4,-4.6041334E-4,-8.9220106E-5,-1.9342428E-3,-9.225546E-4,3.65955E-2,-3.5007696E-3,-9.0911686E-5,1.6551036E-3,1.3688087E-4,-1.8569E-2,4.462923E-2,-3.797233E-5,1.526469E-4,1.7316772E-1,1.02657914E-1,-1.080659E-2,-8.6114585E-2,6.5989606E-2,6.7742825E-2,1.6698786E-3,-4.1932537E-4,-1.0338038E-4,-4.5919714E-5,-2.9447928E-4,7.002158E-4,1.5226095E-4,1.9505355E-3,5.374777E-4,-9.6825956E-5,9.031135E-2,-1.6463575E-1,-5.697808E-2,-9.541457E-2,9.598044E-3,-7.621147E-2,8.821188E-2,-5.2520854E-4,-3.1574367E-5,1.4928901E-3,3.9021284E-4,2.1735668E-4,-2.5514156E-2,2.3513703E-4,1.0158872E-3,1.5286237E-4,-6.052608E-4,-2.9700884E-1,-1.5318167E-1,-8.927029E-4,-1.8847524E-4,1.0817242E-2,-4.6076927E-2,1.5170722E-4,8.0411497E-4,-8.44727E-5,-3.7469913E-4,1.6344626E-1,9.847838E-4,5.73799E-5,2.5402635E-4,9.010485E-4,4.3623993E-4,6.07517E-4,-8.1790634E-4,4.7443507E-5,9.000301E-6,2.2163986E-6,-5.583008E-5,-1.4429729E-4,-3.8062928E-5,-9.889275E-5,-2.6714331E-3,8.956436E-2,-1.2986432E-1,1.18523166E-1,-2.4696381E-1,6.120994E-2,-9.7796075E-2,3.1912833E-4,1.2113577E-3,-3.826E-2,2.9059231E-2,1.4636564E-2,5.4895296E-4,1.3708412E-4,-9.684289E-5,-9.1706264E-5,-2.6438937E-2,2.0373084E-4,5.869883E-4,1.339094E-3,1.9591597E-3,1.4017873E-1,2.3671124E-2,-8.850185E-2,3.6891222E-2,-3.0854965E-2,-1.4381467E-1,1.0901755E-3,1.7221242E-2,7.804859E-4,2.9540955E-5,2.5425822E-4,9.820329E-4,-6.118763E-2,-1.9503927E-3,-7.3435105E-2,3.3328394E-4,-1.13269225E-1,1.0303372E-3,1.5793737E-3,-1.851552E-2,1.3814807E-3,-1.6301443E-1,1.5185228E-1,4.5102406E-2,-3.9453417E-4,-8.681171E-3,-3.3445752E-3,1.3236073E-3,1.3200175E-3,-2.3661871E-1,1.8662214E-4,-6.3347816E-4,-5.248862E-4,-1.7894566E-2,3.7562608E-4,1.6596973E-1,-2.8485258E-3,1.2709921E-3,-1.8973725E-1,-7.806284E-2,1.3376193E-3,3.6403447E-4,-2.025811E-1,-3.6873042E-3,7.7744183E-4,-2.4635196E-5,-5.7477683E-2,-1.2918103E-1,-6.385456E-4,-1.589772E-4,1.986563E-5,3.7421266E-4,9.137392E-6,1.7838835E-4,-2.8950933E-4,-6.939471E-5,1.714622E-3,6.20894E-4,5.169792E-2,-3.093058E-4,-2.2827715E-4,-9.7071123E-4,8.0011546E-4,6.980862E-3,-4.284401E-4,3.8341284E-3,-1.5039758E-3,-4.2284266E-4,-2.2145807E-5,2.4438044E-4,4.3212174E-5,-7.515364E-4,-8.7378075E-4,-3.3650745E-4,-1.6450472E-3,-7.5665906E-2,4.208713E-2,-6.798909E-2,-2.3013311E-3,-6.3292845E-4,1.7763367E-1,-1.5017755E-2,7.2545305E-2,-7.8953214E-2,1.3095289E-4,-2.0305088E-2,-2.674725E-3,-5.6601764E-4,-3.8131177E-5,2.8629005E-5,-3.2489894E-5,-2.3592859E-4,1.7449638E-3,9.567486E-4,1.1463165E-4,-1.5735954E-4,-2.2914723E-1,-5.720585E-2,-9.567744E-2,-2.5606037E-3,-2.2121264E-1,-5.400183E-2,-9.3969695E-2,-3.1077819E-2,-1.8920209E-3,-9.271144E-2,6.737029E-4,1.8792906E-4,3.262351E-2,-9.800898E-5,-5.0786533E-5,1.5286237E-4,-3.0494044E-2,-9.5710665E-2,-5.845205E-4,6.2051006E-2,-1.3152289E-3,-1.5601858E-2,2.7789213E-4,1.927392E-1,-4.2848455E-4,3.4237176E-4,1.0012215E-2,1.26636E-1,-9.0839696E-4,-3.817141E-5,-2.5760426E-4,-4.6972036E-5,-1.6100626E-3,-2.9234332E-3,-6.367362E-4,-1.5667379E-4,-5.3524386E-2,-1.2719968E-1,-7.26895E-5,8.136391E-5,-2.609434E-1,-1.1962984E-1,-7.285283E-4,1.070109E-4,-2.2899955E-4,-9.93219E-4,-7.0891976E-3,-5.418029E-2,-9.9025376E-2,-2.3924014E-2,7.3649586E-5,4.1570305E-4,-3.483366E-4,-2.2281705E-5,-1.1685414E-3,-6.3914736E-4,8.0289645E-4,1.6811252E-2,-3.5167355E-4,6.5639517E-3,6.0104206E-4,2.0556205E-3,6.1879836E-2,-4.3106932E-2,3.0299414E-2,1.5622324E-3,-2.580055E-2,-8.172904E-4,-2.8575776E-4,-1.3595569E-3,1.3145996E-3,-3.1184712E-1,1.0392815E-1,-2.3028728E-1,9.313305E-5,-1.3106099E-2,-2.1906227E-2,-6.916349E-2,-5.412801E-2,-1.0798691E-3,-7.454514E-5,-2.8431506E-4,2.2920623E-4,-3.8131177E-5,-6.3676834E-3,2.1618148E-4,7.850928E-4,2.5623068E-4,-7.6385885E-3,-6.2860217E-4,-3.8182137E-5,3.9783373E-4,-2.8567415E-4,-5.983114E-5,-3.7071113E-3,-2.2768478E-3,1.3143116E-3,1.0709554E-4,-3.4268817E-3,-1.167893E-3,-5.588094E-5,-1.4995682E-4,-9.146492E-5,-3.0092715E-4,-7.7000755E-4,-1.8907188E-4,-6.2349846E-4,-1.0620325E-4,-9.090264E-5,9.000301E-6,1.1076331E-5,-1.0923207E-4],"categories":[],"categories_nodes":[],"categories_segments":[],"categories_sizes":[],"default_left":[0,0,0,0,0,0,0,0,0,0,0,0,0,0,0,0,0,0,0,0,0,0,0,0,0,0,0,0,0,0,0,0,0,0,0,0,0,0,0,0,0,0,0,0,0,0,0,0,0,0,0,0,0,0,0,0,0,0,0,0,0,0,0,0,0,0,0,0,0,0,0,0,0,0,0,0,0,0,0,0,0,0,0,0,0,0,0,0,0,0,0,0,0,0,0,0,0,0,0,0,0,0,0,0,0,0,0,0,0,0,0,0,0,0,0,0,0,0,0,0,0,0,0,0,0,0,0,0,0,0,0,0,0,0,0,0,0,0,0,0,0,0,0,0,0,0,0,0,0,0,0,0,0,0,0,0,0,0,0,0,0,0,0,0,0,0,0,0,0,0,0,0,0,0,0,0,0,0,0,0,0,0,0,0,0,0,0,0,0,0,0,0,0,0,0,0,0,0,0,0,0,0,0,0,0,0,0,0,0,0,0,0,0,0,0,0,0,0,0,0,0,0,0,0,0,0,0,0,0,0,0,0,0,0,0,0,0,0,0,0,0,0,0,0,0,0,0,0,0,0,0,0,0,0,0,0,0,0,0,0,0,0,0,0,0,0,0,0,0,0,0,0,0,0,0,0,0,0,0,0,0,0,0,0,0,0,0,0,0,0,0,0,0,0,0,0,0,0,0,0,0,0,0,0,0,0,0,0,0,0,0,0,0,0,0,0,0,0,0,0,0,0,0,0,0,0,0,0,0,0,0,0,0,0,0,0,0,0,0,0,0,0,0,0,0,0,0,0,0,0,0,0,0,0,0,0,0,0,0,0,0,0,0,0,0,0,0,0,0,0,0,0,0,0,0,0,0,0,0,0,0,0,0,0,0,0,0,0,0,0,0,0,0,0,0,0,0,0,0,0,0,0,0,0,0,0,0,0,0,0,0,0,0,0,0,0,0,0,0,0,0,0,0,0,0,0,0,0,0,0,0,0,0,0,0,0,0,0,0,0,0,0,0,0,0,0,0,0,0,0,0,0,0,0,0,0,0,0,0,0,0,0,0,0,0,0,0,0,0,0,0,0,0,0,0,0,0,0,0,0,0,0,0,0,0,0,0,0,0,0,0,0,0,0,0,0,0,0,0,0,0,0,0,0,0,0,0,0,0,0,0,0,0,0,0,0,0,0,0,0,0],"id":1,"left_children":[1,3,5,7,9,11,13,15,17,19,21,23,25,27,29,31,33,35,37,39,-1,41,43,45,47,-1,-1,49,51,-1,-1,53,55,57,59,61,63,65,67,-1,-1,69,71,73,75,-1,77,79,81,-1,-1,-1,-1,83,85,87,89,91,93,95,97,99,101,103,105,107,109,111,113,115,117,-1,119,121,123,125,127,-1,-1,-1,129,-1,-1,131,-1,-1,-1,133,135,137,139,141,143,145,147,149,151,-1,153,155,157,159,161,163,165,167,169,171,173,-1,175,177,179,181,183,-1,-1,185,-1,187,-1,-1,189,-1,191,193,195,-1,197,199,-1,-1,-1,201,-1,-1,-1,203,205,207,209,211,213,215,-1,217,219,-1,-1,221,223,-1,-1,-1,225,227,229,231,233,235,237,239,241,-1,243,245,247,249,251,253,255,-1,257,259,261,-1,-1,263,-1,265,267,269,271,273,275,-1,277,279,-1,-1,-1,-1,-1,-1,-1,281,283,-1,-1,-1,285,-1,287,-1,289,-1,291,293,295,297,299,301,-1,-1,-1,-1,-1,-1,-1,-1,-1,-1,-1,-1,-1,303,305,-1,-1,-1,307,309,-1,-1,311,313,315,317,319,321,-1,-1,-1,-1,-1,-1,-1,-1,-1,-1,323,325,327,329,331,333,335,-1,-1,-1,-1,-1,337,-1,-1,-1,-1,339,341,-1,-1,343,345,-1,-1,-1,-1,347,-1,-1,-1,-1,-1,-1,-1,-1,-1,-1,-1,-1,-1,-1,-1,349,351,353,355,357,359,-1,-1,361,363,365,-1,-1,-1,-1,367,-1,-1,-1,-1,369,371,373,375,377,379,-1,381,-1,-1,-1,-1,383,-1,385,-1,387,-1,-1,389,-1,391,393,395,-1,397,-1,-1,-1,399,-1,401,-1,403,-1,405,407,-1,409,411,-1,-1,413,-1,-1,-1,415,417,-1,-1,-1,-1,-1,-1,-1,-1,-1,-1,419,-1,-1,-1,-1,421,-1,423,-1,-1,-1,-1,-1,-1,-1,-1,-1,425,427,429,-1,-1,431,433,435,437,-1,439,-1,-1,-1,-1,-1,-1,-1,-1,-1,-1,441,443,445,447,449,451,453,455,-1,457,-1,-1,459,-1,-1,-1,461,463,-1,465,-1,467,-1,469,-1,-1,471,473,-1,-1,-1,-1,-1,-1,-1,-1,475,477,-1,-1,479,481,-1,-1,-1,-1,483,485,487,489,-1,-1,-1,-1,-1,-1,-1,491,-1,493,-1,-1,495,497,499,-1,501,-1,-1,-1,-1,503,505,507,-1,509,511,513,515,-1,-1,-1,-1,-1,517,-1,-1,-1,519,-1,-1,-1,-1,-1,-1,-1,-1,-1,-1,-1,-1,-1,-1,-1,-1,-1,-1,-1,-1,-1,-1,-1],"loss_changes":[1.0252129E0,9.0100574E-1,3.2727063E-1,1.0321354E0,5.7451016E-1,2.5345206E-1,1.2728806E-1,1.2151657E0,4.8792544E-1,2.1797194E-1,4.6926945E-1,1.4805067E-1,6.2789656E-3,2.2463024E-2,7.247068E-3,1.1246352E0,2.5999224E-1,3.9338982E-1,5.247674E-1,6.571477E-2,0E0,1.5822542E-1,1.8722104E-1,2.3432016E-2,1.1804603E-1,0E0,0E0,5.330287E-3,4.4786418E-4,0E0,0E0,3.467464E-1,8.91572E-1,2.0735815E-1,3.2353687E-1,2.1835178E-1,2.986639E-1,2.2738326E-1,3.4211063E-1,0E0,0E0,9.227204E-2,5.0063007E-2,4.0195577E-2,1.408339E-1,0E0,3.7989616E-3,4.7394574E-2,8.594394E-4,0E0,0E0,0E0,0E0,6.0228884E-2,1.2413114E-3,3.1070128E-1,5.3056E-1,8.879663E-2,1.02748275E-1,1.1944425E-1,1.0950242E-1,1.7183495E-1,2.2060488E-1,9.380174E-2,3.2837978E-1,1.1272389E-1,5.033192E-2,3.981849E-1,6.8849094E-2,2.765279E-2,5.7711482E-2,0E0,3.838013E-3,5.008206E-3,1.2410283E-2,5.1973E-2,1.9965865E-2,0E0,0E0,0E0,1.1677876E-2,0E0,0E0,2.1309817E-2,0E0,0E0,0E0,4.5481004E-2,2.5011897E-2,2.8672743E-1,3.2953596E-1,5.9222706E-2,4.7926858E-2,3.6196955E-2,1.9351184E-2,7.1326435E-2,6.6499505E-3,0E0,1.6759481E-2,9.1179796E-2,5.612451E-2,1.6422735E-1,6.581423E-2,1.4373143E-2,3.7511945E-2,2.1641311E-1,3.2969058E-1,2.1504857E-2,5.266766E-2,0E0,2.2175685E-3,8.426979E-2,1.5623796E-1,1.6491197E-2,3.049636E-2,0E0,0E0,1.7644286E-2,0E0,4.044798E-3,0E0,0E0,1.1541229E-4,0E0,5.3447206E-4,4.6486706E-3,3.20158E-2,0E0,2.546335E-3,8.722827E-5,0E0,0E0,0E0,9.518417E-4,0E0,0E0,0E0,2.1781683E-2,4.3637753E-2,3.057711E-1,2.415376E-1,1.6309418E-2,1.2301192E-2,3.4045458E-3,0E0,4.9024746E-3,3.5179257E-3,0E0,0E0,5.364977E-4,7.255614E-3,0E0,0E0,0E0,5.1063653E-3,2.795387E-2,1.5738502E-3,2.1530148E-3,1.9314528E-2,1.02643274E-1,1.0512456E-1,2.713725E-2,8.7474706E-5,0E0,2.863307E-4,8.4111094E-4,1.1918247E-3,1.0123022E-2,8.488989E-2,1.8127519E-1,2.6515028E-1,0E0,1.6880548E-3,7.61725E-4,4.3578343E-3,0E0,0E0,7.719815E-3,0E0,6.1718198E-3,2.0650744E-2,1.7077252E-3,9.325678E-3,1.7333329E-3,6.309545E-4,0E0,4.0997267E-3,6.345194E-5,0E0,0E0,0E0,0E0,0E0,0E0,0E0,2.1025538E-3,2.3614813E-2,0E0,0E0,0E0,4.159123E-6,0E0,2.7138856E-5,0E0,5.879323E-6,0E0,5.7394385E-2,2.731012E-1,4.4052768E-1,1.08321816E-1,7.7837706E-4,9.9925855E-3,0E0,0E0,0E0,0E0,0E0,0E0,0E0,0E0,0E0,0E0,0E0,0E0,0E0,2.4112733E-3,7.71236E-4,0E0,0E0,0E0,6.451132E-4,1.6922038E-4,0E0,0E0,5.022049E-3,5.0027475E-2,5.8853347E-2,6.252079E-2,1.0713002E-2,4.4433214E-3,0E0,0E0,0E0,0E0,0E0,0E0,0E0,0E0,0E0,0E0,5.75535E-4,5.096972E-2,2.4740122E-2,1.1796731E-1,1.5722714E-1,2.4580464E-1,1.5227434E-1,0E0,0E0,0E0,0E0,0E0,1.0653343E-3,0E0,0E0,0E0,0E0,3.0153823E-1,1.7400324E-1,0E0,0E0,4.60975E-4,5.0631166E-4,0E0,0E0,0E0,0E0,5.201578E-3,0E0,0E0,0E0,0E0,0E0,0E0,0E0,0E0,0E0,0E0,0E0,0E0,0E0,0E0,0E0,2.464297E-2,9.6842766E-2,1.3621151E-4,1.5228438E-1,5.4554865E-3,5.9640646E-2,0E0,0E0,1.8466217E-3,8.3119096E-4,2.0342099E-4,0E0,0E0,0E0,0E0,9.299163E-5,0E0,0E0,0E0,0E0,1.8668905E-2,1.2311223E-2,1.1607707E-3,1.2338894E-2,5.1549384E-3,3.2418966E-4,0E0,6.151778E-4,0E0,0E0,0E0,0E0,5.8141407E-3,0E0,4.270911E-3,0E0,4.1498125E-2,0E0,0E0,9.880481E-2,0E0,4.5672894E-2,1.0161686E-1,1.2828773E-1,0E0,1.2784118E-3,0E0,0E0,0E0,1.2631625E-2,0E0,4.4268247E-5,0E0,1.7371151E-4,0E0,4.2833686E-3,7.337065E-4,0E0,7.046038E-2,2.768378E-2,0E0,0E0,7.940674E-2,0E0,0E0,0E0,2.1164238E-2,4.5938164E-2,0E0,0E0,0E0,0E0,0E0,0E0,0E0,0E0,0E0,0E0,1.3124142E-3,0E0,0E0,0E0,0E0,3.3320414E-3,0E0,4.859141E-4,0E0,0E0,0E0,0E0,0E0,0E0,0E0,0E0,0E0,1.3379663E-2,3.3734284E-2,5.7858482E-2,0E0,0E0,3.9913595E-2,6.950207E-3,1.00205824E-1,5.90498E-3,0E0,1.34437E-4,0E0,0E0,0E0,0E0,0E0,0E0,0E0,0E0,0E0,0E0,4.6058297E-3,3.457088E-4,1.5780613E-2,3.1096884E-4,8.58264E-2,6.8781804E-3,1.5293211E-3,8.483048E-3,0E0,6.3173175E-3,0E0,0E0,3.7178583E-4,0E0,0E0,0E0,7.8102574E-4,5.986169E-4,0E0,9.376686E-3,0E0,5.0013736E-3,0E0,1.8258512E-2,0E0,0E0,4.3994904E-2,4.087189E-2,0E0,0E0,0E0,0E0,0E0,0E0,0E0,0E0,4.928816E-3,3.886938E-3,0E0,0E0,4.404912E-1,2.713169E-1,0E0,0E0,0E0,0E0,1.0102912E-3,2.3534372E-3,1.3971627E-3,1.0765274E-5,0E0,0E0,0E0,0E0,0E0,0E0,0E0,7.1740896E-4,0E0,1.3057097E-3,0E0,0E0,2.8117895E-3,5.1247664E-3,1.7697527E-3,0E0,1.5807105E-4,0E0,0E0,0E0,0E0,4.769087E-3,8.847602E-3,4.9278617E-2,0E0,1.5644007E-5,1.42587E-4,5.13494E-4,1.12639E-3,0E0,0E0,0E0,0E0,0E0,8.7329274E-5,0E0,0E0,0E0,1.2701089E-4,0E0,0E0,0E0,0E0,0E0,0E0,0E0,0E0,0E0,0E0,0E0,0E0,0E0,0E0,0E0,0E0,0E0,0E0,0E0,0E0,0E0,0E0,0E0],"parents":[2147483647,0,0,1,1,2,2,3,3,4,4,5,5,6,6,7,7,8,8,9,9,10,10,11,11,12,12,13,13,14,14,15,15,16,16,17,17,18,18,19,19,21,21,22,22,23,23,24,24,27,27,28,28,31,31,32,32,33,33,34,34,35,35,36,36,37,37,38,38,41,41,42,42,43,43,44,44,46,46,47,47,48,48,53,53,54,54,55,55,56,56,57,57,58,58,59,59,60,60,61,61,62,62,63,63,64,64,65,65,66,66,67,67,68,68,69,69,70,70,72,72,73,73,74,74,75,75,76,76,80,80,83,83,87,87,88,88,89,89,90,90,91,91,92,92,93,93,94,94,95,95,96,96,98,98,99,99,100,100,101,101,102,102,103,103,104,104,105,105,106,106,107,107,108,108,110,110,111,111,112,112,113,113,114,114,117,117,119,119,122,122,124,124,125,125,126,126,128,128,129,129,133,133,137,137,138,138,139,139,140,140,141,141,142,142,143,143,145,145,146,146,149,149,150,150,154,154,155,155,156,156,157,157,158,158,159,159,160,160,161,161,162,162,164,164,165,165,166,166,167,167,168,168,169,169,170,170,172,172,173,173,174,174,177,177,179,179,180,180,181,181,182,182,183,183,184,184,186,186,187,187,195,195,196,196,200,200,202,202,204,204,206,206,207,207,208,208,209,209,210,210,211,211,225,225,226,226,230,230,231,231,234,234,235,235,236,236,237,237,238,238,239,239,250,250,251,251,252,252,253,253,254,254,255,255,256,256,262,262,267,267,268,268,271,271,272,272,277,277,293,293,294,294,295,295,296,296,297,297,298,298,301,301,302,302,303,303,308,308,313,313,314,314,315,315,316,316,317,317,318,318,320,320,325,325,327,327,329,329,332,332,334,334,335,335,336,336,338,338,342,342,344,344,346,346,348,348,349,349,351,351,352,352,355,355,359,359,360,360,371,371,376,376,378,378,388,388,389,389,390,390,393,393,394,394,395,395,396,396,398,398,409,409,410,410,411,411,412,412,413,413,414,414,415,415,416,416,418,418,421,421,425,425,426,426,428,428,430,430,432,432,435,435,436,436,445,445,446,446,449,449,450,450,455,455,456,456,457,457,458,458,466,466,468,468,471,471,472,472,473,473,475,475,480,480,481,481,482,482,484,484,485,485,486,486,487,487,493,493,497,497],"right_children":[2,4,6,8,10,12,14,16,18,20,22,24,26,28,30,32,34,36,38,40,-1,42,44,46,48,-1,-1,50,52,-1,-1,54,56,58,60,62,64,66,68,-1,-1,70,72,74,76,-1,78,80,82,-1,-1,-1,-1,84,86,88,90,92,94,96,98,100,102,104,106,108,110,112,114,116,118,-1,120,122,124,126,128,-1,-1,-1,130,-1,-1,132,-1,-1,-1,134,136,138,140,142,144,146,148,150,152,-1,154,156,158,160,162,164,166,168,170,172,174,-1,176,178,180,182,184,-1,-1,186,-1,188,-1,-1,190,-1,192,194,196,-1,198,200,-1,-1,-1,202,-1,-1,-1,204,206,208,210,212,214,216,-1,218,220,-1,-1,222,224,-1,-1,-1,226,228,230,232,234,236,238,240,242,-1,244,246,248,250,252,254,256,-1,258,260,262,-1,-1,264,-1,266,268,270,272,274,276,-1,278,280,-1,-1,-1,-1,-1,-1,-1,282,284,-1,-1,-1,286,-1,288,-1,290,-1,292,294,296,298,300,302,-1,-1,-1,-1,-1,-1,-1,-1,-1,-1,-1,-1,-1,304,306,-1,-1,-1,308,310,-1,-1,312,314,316,318,320,322,-1,-1,-1,-1,-1,-1,-1,-1,-1,-1,324,326,328,330,332,334,336,-1,-1,-1,-1,-1,338,-1,-1,-1,-1,340,342,-1,-1,344,346,-1,-1,-1,-1,348,-1,-1,-1,-1,-1,-1,-1,-1,-1,-1,-1,-1,-1,-1,-1,350,352,354,356,358,360,-1,-1,362,364,366,-1,-1,-1,-1,368,-1,-1,-1,-1,370,372,374,376,378,380,-1,382,-1,-1,-1,-1,384,-1,386,-1,388,-1,-1,390,-1,392,394,396,-1,398,-1,-1,-1,400,-1,402,-1,404,-1,406,408,-1,410,412,-1,-1,414,-1,-1,-1,416,418,-1,-1,-1,-1,-1,-1,-1,-1,-1,-1,420,-1,-1,-1,-1,422,-1,424,-1,-1,-1,-1,-1,-1,-1,-1,-1,426,428,430,-1,-1,432,434,436,438,-1,440,-1,-1,-1,-1,-1,-1,-1,-1,-1,-1,442,444,446,448,450,452,454,456,-1,458,-1,-1,460,-1,-1,-1,462,464,-1,466,-1,468,-1,470,-1,-1,472,474,-1,-1,-1,-1,-1,-1,-1,-1,476,478,-1,-1,480,482,-1,-1,-1,-1,484,486,488,490,-1,-1,-1,-1,-1,-1,-1,492,-1,494,-1,-1,496,498,500,-1,502,-1,-1,-1,-1,504,506,508,-1,510,512,514,516,-1,-1,-1,-1,-1,518,-1,-1,-1,520,-1,-1,-1,-1,-1,-1,-1,-1,-1,-1,-1,-1,-1,-1,-1,-1,-1,-1,-1,-1,-1,-1,-1],"split_conditions":[-3.5934392E-3,2.0714127E-2,1.5512888E-3,-5.5664903E-3,-2.750855E-2,2.2323877E-3,6.851705E-4,-5.5664903E-3,1.704343E-2,2.1849538E-3,4.382339E-3,3.022699E-2,5.859607E-3,1.2736837E-4,3.3275597E-2,1.8918017E-3,-7.5363596E-3,4.4199605E-3,-1.5694963E-2,1.1594629E-2,-3.0199934E-3,3.5801794E-2,-1.9624973E-2,8.427027E-3,8.884124E-3,-1.3581655E-3,-1.9474536E-4,-2.1888008E-2,1.2061275E-2,-2.038912E-3,-4.2010157E-4,2.6871119E-2,-9.834496E-3,1.5975942E-3,-5.6551592E-3,1.4871255E-2,-3.2461584E-2,-1.1888118E-2,6.6532185E-3,1.0289747E-3,-8.464673E-4,-8.260103E-3,1.097996E-3,-1.3002222E-2,2.8337906E-3,1.4257214E-3,1.5699109E-2,-4.5518004E-3,-1.5053046E-2,9.828463E-5,6.312542E-4,-6.1571656E-4,-1.3393581E-4,-2.4283936E-2,9.5594805E-3,-2.0557595E-2,9.192288E-3,5.9050336E-3,-5.1494767E-3,2.1004907E-3,7.3937085E-3,-9.841439E-3,1.9039774E-2,-9.019837E-3,7.156813E-5,-9.027949E-3,-1.5551127E-2,1.0179077E-2,-1.0857518E-2,-5.8124494E-3,-1.0740086E-3,1.00588E-3,8.114945E-3,-4.0654666E-3,-2.1476045E-3,5.611887E-3,4.4924747E-3,2.4094037E-3,1.3407047E-3,-8.3453377E-4,4.7246427E-3,1.6983598E-3,9.249982E-4,-5.8124494E-3,1.9199604E-3,-6.270978E-4,-2.422935E-3,-2.0432996E-2,5.746607E-4,-7.7548367E-3,1.4005402E-2,5.7735387E-3,-1.3184035E-2,5.459379E-3,-1.0934047E-2,2.547007E-2,7.810844E-3,1.5279042E-3,-2.1374687E-3,-3.2002986E-3,1.0212456E-2,-3.7222352E-2,-5.1952293E-3,8.251698E-3,5.388249E-3,-2.5656266E-2,-1.0905767E-2,-3.7013378E-4,-9.358622E-3,1.8258262E-3,-5.3518673E-4,-1.2081433E-2,2.5747517E-2,-9.248323E-3,-1.7401708E-2,-6.440147E-4,8.7447016E-4,-1.6129067E-2,2.4673033E-3,8.294696E-3,-5.1536766E-4,-1.3762182E-3,1.20763555E-2,3.680082E-4,5.7483674E-3,2.1401148E-3,-4.7490792E-3,-1.1329447E-3,-1.330944E-2,9.5594805E-3,7.950246E-4,-6.908919E-4,7.6960353E-4,1.2469363E-2,-1.7242437E-3,1.7053289E-3,4.6959592E-4,-1.7650428E-3,-1.3328774E-2,-2.1643212E-2,-1.797051E-2,1.7905833E-2,1.2935266E-3,1.7995996E-3,1.4029754E-3,3.189872E-3,3.157682E-3,5.510008E-4,1.995266E-3,1.17958905E-2,-6.037644E-4,8.678317E-4,-3.7913916E-5,-6.209047E-4,4.975747E-3,-2.4853442E-3,-6.8155173E-3,8.210167E-3,-1.35361375E-2,-5.52614E-3,-8.676089E-3,-3.697869E-3,3.944826E-3,5.5374636E-4,2.347122E-3,-2.013227E-3,1.46941105E-2,4.5591415E-4,5.1642633E-3,1.6434627E-2,-1.5247864E-2,-1.5768927E-3,1.0088579E-2,7.4142683E-3,-1.22116385E-2,1.03397666E-4,7.239539E-4,-1.3440204E-2,-9.849132E-4,-1.2709779E-2,1.3535394E-2,1.456652E-2,-9.196605E-3,-8.86426E-4,3.9921445E-3,3.5954852E-4,8.8069625E-3,5.7483674E-3,-3.7352368E-4,-1.3045281E-4,-5.2237377E-4,-7.406771E-5,-4.173409E-4,1.6885435E-3,5.9821364E-4,-8.881849E-3,-1.330944E-2,2.4517477E-4,-2.1662035E-4,-4.770398E-5,-2.4853442E-3,-3.3924982E-4,1.597485E-2,-1.2184243E-3,4.58757E-3,-4.0746657E-3,-6.630465E-3,-4.8817106E-2,-1.9616535E-2,-1.3533456E-2,-1.5638113E-2,2.906736E-2,6.956866E-4,-3.8060613E-4,-1.2726502E-3,3.2064246E-4,-8.343294E-5,-4.31556E-4,1.5350322E-4,9.6782687E-4,1.5286237E-4,-4.6041334E-4,-8.9220106E-5,-1.9342428E-3,-9.225546E-4,-7.0607765E-3,4.5591415E-4,-9.0911686E-5,1.6551036E-3,1.3688087E-4,1.3594859E-2,1.08486535E-2,-3.797233E-5,1.526469E-4,3.637944E-3,-5.2089044E-3,2.4484476E-2,2.9652586E-2,4.9018804E-3,1.14464685E-2,1.6698786E-3,-4.1932537E-4,-1.0338038E-4,-4.5919714E-5,-2.9447928E-4,7.002158E-4,1.5226095E-4,1.9505355E-3,5.374777E-4,-9.6825956E-5,-1.895044E-2,-8.4898307E-4,-1.1395894E-2,8.618872E-3,2.6005905E-3,1.0544386E-2,4.4462564E-3,-5.2520854E-4,-3.1574367E-5,1.4928901E-3,3.9021284E-4,2.1735668E-4,-8.4677315E-4,2.3513703E-4,1.0158872E-3,1.5286237E-4,-6.052608E-4,-8.788205E-4,3.298353E-4,-8.927029E-4,-1.8847524E-4,-1.0547605E-2,1.456652E-2,1.5170722E-4,8.0411497E-4,-8.44727E-5,-3.7469913E-4,-3.138348E-2,9.847838E-4,5.73799E-5,2.5402635E-4,9.010485E-4,4.3623993E-4,6.07517E-4,-8.1790634E-4,4.7443507E-5,9.000301E-6,2.2163986E-6,-5.583008E-5,-1.4429729E-4,-3.8062928E-5,-9.889275E-5,-2.6714331E-3,1.0151325E-2,-1.2522621E-2,3.0961744E-3,1.4292627E-2,1.1324755E-2,-1.4912344E-3,3.1912833E-4,1.2113577E-3,-1.9048258E-3,6.324823E-3,2.9326375E-3,5.4895296E-4,1.3708412E-4,-9.684289E-5,-9.1706264E-5,-2.4930234E-3,2.0373084E-4,5.869883E-4,1.339094E-3,1.9591597E-3,1.7023534E-2,-2.8051229E-3,2.501917E-3,-1.5937328E-2,3.5695268E-3,1.3498358E-2,1.0901755E-3,6.6354335E-3,7.804859E-4,2.9540955E-5,2.5425822E-4,9.820329E-4,-3.0003786E-3,-1.9503927E-3,7.3345588E-3,3.3328394E-4,1.8176682E-2,1.0303372E-3,1.5793737E-3,-1.6840035E-3,1.3814807E-3,-3.5606243E-2,-5.4173255E-3,-6.045048E-4,-3.9453417E-4,5.887331E-3,-3.3445752E-3,1.3236073E-3,1.3200175E-3,4.2850412E-3,1.8662214E-4,3.9921445E-3,-5.248862E-4,5.4206364E-3,3.7562608E-4,-6.6568963E-3,4.0624896E-3,1.2709921E-3,-2.4111178E-2,-6.337645E-3,1.3376193E-3,3.6403447E-4,2.3580324E-2,-3.6873042E-3,7.7744183E-4,-2.4635196E-5,-8.432555E-2,4.192551E-3,-6.385456E-4,-1.589772E-4,1.986563E-5,3.7421266E-4,9.137392E-6,1.7838835E-4,-2.8950933E-4,-6.939471E-5,1.714622E-3,6.20894E-4,-6.901441E-3,-3.093058E-4,-2.2827715E-4,-9.7071123E-4,8.0011546E-4,5.3978306E-3,-4.284401E-4,5.4206364E-3,-1.5039758E-3,-4.2284266E-4,-2.2145807E-5,2.4438044E-4,4.3212174E-5,-7.515364E-4,-8.7378075E-4,-3.3650745E-4,-1.6450472E-3,2.4431478E-2,-7.1465857E-3,-1.8203737E-2,-2.3013311E-3,-6.3292845E-4,1.9719647E-3,4.9018804E-3,-4.5024017E-3,-9.781013E-3,1.3095289E-4,1.5150652E-3,-2.674725E-3,-5.6601764E-4,-3.8131177E-5,2.8629005E-5,-3.2489894E-5,-2.3592859E-4,1.7449638E-3,9.567486E-4,1.1463165E-4,-1.5735954E-4,-2.328624E-3,3.9921445E-3,-2.3368761E-2,5.887331E-3,7.066788E-3,4.9537285E-3,-1.2998942E-2,2.3213048E-2,-1.8920209E-3,8.547601E-3,6.737029E-4,1.8792906E-4,1.2935266E-3,-9.800898E-5,-5.0786533E-5,1.5286237E-4,2.701288E-3,-1.2075754E-3,-5.845205E-4,-2.8589401E-2,-1.3152289E-3,5.641969E-4,2.7789213E-4,4.2629563E-3,-4.2848455E-4,3.4237176E-4,-2.2958145E-2,-3.113982E-3,-9.0839696E-4,-3.817141E-5,-2.5760426E-4,-4.6972036E-5,-1.6100626E-3,-2.9234332E-3,-6.367362E-4,-1.5667379E-4,-9.188026E-3,-1.2270038E-2,-7.26895E-5,8.136391E-5,-1.38846E-2,-7.2738994E-3,-7.285283E-4,1.070109E-4,-2.2899955E-4,-9.93219E-4,2.1980163E-2,5.887331E-3,-1.1485328E-2,5.887331E-3,7.3649586E-5,4.1570305E-4,-3.483366E-4,-2.2281705E-5,-1.1685414E-3,-6.3914736E-4,8.0289645E-4,-7.571055E-3,-3.5167355E-4,1.3807807E-2,6.0104206E-4,2.0556205E-3,1.1590219E-2,2.1018669E-2,5.534546E-3,1.5622324E-3,1.2655786E-3,-8.172904E-4,-2.8575776E-4,-1.3595569E-3,1.3145996E-3,4.238702E-3,3.0961744E-3,3.0961744E-3,9.313305E-5,-1.6875821E-3,1.08486535E-2,1.08486535E-2,7.052636E-3,-1.0798691E-3,-7.454514E-5,-2.8431506E-4,2.2920623E-4,-3.8131177E-5,5.4206364E-3,2.1618148E-4,7.850928E-4,2.5623068E-4,4.5591415E-4,-6.2860217E-4,-3.8182137E-5,3.9783373E-4,-2.8567415E-4,-5.983114E-5,-3.7071113E-3,-2.2768478E-3,1.3143116E-3,1.0709554E-4,-3.4268817E-3,-1.167893E-3,-5.588094E-5,-1.4995682E-4,-9.146492E-5,-3.0092715E-4,-7.7000755E-4,-1.8907188E-4,-6.2349846E-4,-1.0620325E-4,-9.090264E-5,9.000301E-6,1.1076331E-5,-1.0923207E-4],"split_indices":[1582,691,532,758,1894,199,321,759,1387,477,2025,252,0,101,1,1878,642,1799,1372,11,0,164,1280,1709,841,0,0,13,0,0,0,63,1345,454,1836,2040,1019,443,1098,0,0,554,73,1826,1856,0,1617,5,6,0,0,0,0,7,0,471,1251,785,1020,1501,1709,1483,1972,571,1755,369,1077,1885,174,1,1922,0,0,9,14,1129,161,0,0,0,37,0,0,0,0,0,0,172,5,360,1951,192,1760,484,1422,165,0,0,1,1026,30,580,195,10,1319,294,1615,411,104,0,14,331,127,196,425,0,0,310,0,1,0,0,0,0,0,14,2,0,1,0,0,0,0,10,0,0,0,9,796,1734,1281,62,1,36,0,0,5,0,0,11,183,0,0,0,510,1,8,1,13,1802,1694,1503,0,0,0,9,0,1,1471,2005,1052,0,0,0,6,0,0,7,0,2,10,17,91,0,1,0,1172,0,0,0,0,0,0,0,0,1902,1,0,0,0,1,0,1,0,0,0,1,959,1005,1580,6,29,0,0,0,0,0,0,0,0,0,0,0,0,0,49,1,0,0,0,1420,0,0,0,566,179,481,987,1,0,0,0,0,0,0,0,0,0,0,0,2,1564,7,95,495,39,793,0,0,0,0,0,8,0,0,0,0,5,1,0,0,12,17,0,0,0,0,426,0,0,0,0,0,0,0,0,0,0,0,0,0,0,0,26,119,0,158,0,2001,0,0,14,0,0,0,0,0,0,5,0,0,0,0,57,23,0,2,75,0,0,0,0,0,0,0,0,0,966,0,1333,0,0,2036,0,19,317,528,0,1,0,0,0,0,0,0,0,0,0,141,0,0,248,364,0,0,233,0,0,0,1290,218,0,0,0,0,0,0,0,0,0,0,0,0,0,0,0,1,0,0,0,0,0,0,0,0,0,0,0,1239,40,1280,0,0,892,0,1180,12,0,0,0,0,0,0,0,0,0,0,0,0,22,0,128,0,482,1,6,58,0,54,0,0,0,0,0,0,8,325,0,67,0,15,0,94,0,0,213,1103,0,0,0,0,0,0,0,0,91,7,0,0,7,13,0,0,0,0,28,1,107,0,0,0,0,0,0,0,0,5,0,10,0,0,10,58,0,0,14,0,0,0,0,1047,0,0,0,25,0,0,0,0,0,0,0,0,1,0,0,0,0,0,0,0,0,0,0,0,0,0,0,0,0,0,0,0,0,0,0,0,0,0,0,0],"split_type":[0,0,0,0,0,0,0,0,0,0,0,0,0,0,0,0,0,0,0,0,0,0,0,0,0,0,0,0,0,0,0,0,0,0,0,0,0,0,0,0,0,0,0,0,0,0,0,0,0,0,0,0,0,0,0,0,0,0,0,0,0,0,0,0,0,0,0,0,0,0,0,0,0,0,0,0,0,0,0,0,0,0,0,0,0,0,0,0,0,0,0,0,0,0,0,0,0,0,0,0,0,0,0,0,0,0,0,0,0,0,0,0,0,0,0,0,0,0,0,0,0,0,0,0,0,0,0,0,0,0,0,0,0,0,0,0,0,0,0,0,0,0,0,0,0,0,0,0,0,0,0,0,0,0,0,0,0,0,0,0,0,0,0,0,0,0,0,0,0,0,0,0,0,0,0,0,0,0,0,0,0,0,0,0,0,0,0,0,0,0,0,0,0,0,0,0,0,0,0,0,0,0,0,0,0,0,0,0,0,0,0,0,0,0,0,0,0,0,0,0,0,0,0,0,0,0,0,0,0,0,0,0,0,0,0,0,0,0,0,0,0,0,0,0,0,0,0,0,0,0,0,0,0,0,0,0,0,0,0,0,0,0,0,0,0,0,0,0,0,0,0,0,0,0,0,0,0,0,0,0,0,0,0,0,0,0,0,0,0,0,0,0,0,0,0,0,0,0,0,0,0,0,0,0,0,0,0,0,0,0,0,0,0,0,0,0,0,0,0,0,0,0,0,0,0,0,0,0,0,0,0,0,0,0,0,0,0,0,0,0,0,0,0,0,0,0,0,0,0,0,0,0,0,0,0,0,0,0,0,0,0,0,0,0,0,0,0,0,0,0,0,0,0,0,0,0,0,0,0,0,0,0,0,0,0,0,0,0,0,0,0,0,0,0,0,0,0,0,0,0,0,0,0,0,0,0,0,0,0,0,0,0,0,0,0,0,0,0,0,0,0,0,0,0,0,0,0,0,0,0,0,0,0,0,0,0,0,0,0,0,0,0,0,0,0,0,0,0,0,0,0,0,0,0,0,0,0,0,0,0,0,0,0,0,0,0,0,0,0,0,0,0,0,0,0,0,0,0,0,0,0,0,0,0,0,0,0,0,0,0,0,0,0,0,0,0,0,0,0,0,0,0,0,0,0,0,0,0,0,0,0,0,0,0,0,0,0,0,0,0,0],"sum_hessian":[9.55E2,8.77E2,7.8E1,7.52E2,1.25E2,6.3E1,1.5E1,3.23E2,4.29E2,1E1,1.15E2,6E1,3E0,1.2E1,3E0,2.19E2,1.04E2,3.27E2,1.02E2,6E0,4E0,6.8E1,4.7E1,3.7E1,2.3E1,2E0,1E0,1E1,2E0,2E0,1E0,1.9E1,2E2,5.9E1,4.5E1,1.33E2,1.94E2,3.6E1,6.6E1,2E0,4E0,5.8E1,1E1,1.7E1,3E1,1.4E1,2.3E1,1E1,1.3E1,3E0,7E0,1E0,1E0,1.7E1,2E0,2.1E1,1.79E2,3E1,2.9E1,2.4E1,2.1E1,5.6E1,7.7E1,2.2E1,1.72E2,1.8E1,1.8E1,3.4E1,3.2E1,3E0,5.5E1,4E0,6E0,7E0,1E1,2.4E1,6E0,1.8E1,5E0,3E0,7E0,8E0,5E0,2E0,1.5E1,1E0,1E0,7E0,1.4E1,3.2E1,1.47E2,1.8E1,1.2E1,1.4E1,1.5E1,2.1E1,3E0,7E0,1.4E1,1.7E1,3.9E1,5.6E1,2.1E1,7E0,1.5E1,3.9E1,1.33E2,8E0,1E1,8E0,1E1,1E1,2.4E1,2.1E1,1.1E1,2E0,1E0,4.4E1,1.1E1,3E0,3E0,5E0,2E0,2E0,8E0,9E0,1.5E1,3E0,3E0,3E0,4E0,1E0,1E0,4E0,3E0,1.1E1,3E0,8E0,2.4E1,8.5E1,6.2E1,1E1,8E0,7E0,5E0,4E0,1E1,2E0,1.3E1,7E0,1.4E1,2E0,1E0,2E0,1.2E1,5E0,1.2E1,4E0,3.5E1,3.1E1,2.5E1,1.9E1,2E0,3E0,4E0,5E0,1E1,6E0,3.3E1,6.5E1,6.8E1,4E0,4E0,3E0,7E0,1E0,9E0,6E0,4E0,4E0,2E1,1E1,1.1E1,7E0,4E0,2E0,4.2E1,2E0,1E0,1E0,1E0,1E0,7E0,7E0,2E0,1.2E1,3E0,1E0,2E0,1E0,2E0,1E0,3E0,5E0,3E0,8E0,1.6E1,4.1E1,4.4E1,5.6E1,6E0,7E0,3E0,4E0,4E0,4E0,3E0,2E0,2E0,9E0,1E0,6E0,1E0,1E1,4E0,7E0,5E0,1E0,4E0,1E0,1.1E1,3E0,1E0,1E0,3.4E1,1.7E1,1.4E1,2E1,5E0,6E0,1.3E1,1E0,1E0,1E0,3E0,4E0,1E0,9E0,1E0,1E0,5E0,1.9E1,1.4E1,2.9E1,3.6E1,1.1E1,5.7E1,3E0,1E0,2E0,1E0,2E0,5E0,3E0,3E0,1E0,3E0,1.5E1,5E0,9E0,1E0,4E0,7E0,1E0,6E0,2E0,2E0,3.5E1,7E0,1E0,1E0,7E0,5E0,1E0,2E0,1E0,1E0,1E0,2E0,2E0,1E0,1E0,1.5E1,6E0,3.5E1,3E0,4.1E1,4E0,5.2E1,1E0,5E0,4E0,3E0,4E0,3E0,1E0,4E0,6E0,5E0,2E0,1E0,1.5E1,1.9E1,1.1E1,6E0,5E0,9E0,1.1E1,9E0,2E0,3E0,5E0,1E0,1E0,4E0,5E0,1.4E1,1.2E1,2E0,2.7E1,2E0,5E0,3.1E1,3E0,8E0,2.2E1,3.5E1,2E0,3E0,1.4E1,1E0,1E0,4E0,2E0,2E0,5E0,2E0,1E0,3.4E1,2E0,4E0,1.5E1,2E1,2E0,1E0,3.2E1,9E0,3E0,1E0,2.4E1,2.8E1,1E0,3E0,1E0,2E0,1E0,3E0,4E0,1E0,7E0,4E0,4E0,2E0,1E0,4E0,3E0,6E0,8E0,3E0,8E0,1E0,1E0,2E0,1E0,4E0,8E0,4E0,1E1,1.7E1,1.4E1,1.7E1,4E0,4E0,1.9E1,3E0,2.9E1,6E0,1E0,2E0,3E0,1E0,1E0,1E0,1E0,1E0,2.9E1,5E0,1E0,1E0,1.1E1,4E0,1.6E1,4E0,2.8E1,4E0,9E0,1.5E1,9E0,1.9E1,2E0,2E0,2E0,4E0,2E0,1E0,6E0,1.1E1,2E0,1.2E1,7E0,1E1,2E0,1.7E1,2E0,1E0,1.4E1,1.5E1,5E0,1E0,1E0,1E0,7E0,4E0,3E0,1E0,8E0,8E0,3E0,1E0,1.9E1,9E0,3E0,1E0,1E0,8E0,8E0,7E0,1.7E1,2E0,1E0,1E0,5E0,1E0,5E0,6E0,8E0,4E0,5E0,5E0,2E0,1.5E1,7E0,7E0,4E0,1.1E1,5E0,3E0,1E0,7E0,2E0,1.7E1,3E0,6E0,2E0,6E0,3E0,4E0,4E0,1.3E1,1E0,1E0,3E0,1E0,3E0,2E0,4E0,3E0,3E0,4E0,1E0,3E0,4E0,1E0,8E0,9E0,2E0,1E0,2E0,4E0,2E0,4E0,2E0,1E0,3E0,1E0,3E0,1E0,2E0,1E0,1E0,2E0],"tree_param":{"num_deleted":"0","num_feature":"2048","num_nodes":"521","size_leaf_vector":"1"}},{"base_weights":[2.2276775E-3,-7.7432483E-3,1.269718E-1,-2.2180315E-2,7.433804E-2,3.848856E-2,1.6513465E-1,-9.305645E-2,-5.3671566E-3,1.08780846E-1,-8.94925E-2,-2.7643448E-2,1.272245E-1,1.7539458E-1,-5.4069012E-2,-1.728717E-1,4.825508E-3,5.417869E-2,-2.7569985E-2,5.98866E-2,1.8024814E-1,-3.1790683E-1,4.3070996E-3,-2.5473E-3,-7.230706E-4,1.918608E-2,1.5183586E-3,2.0948055E-1,7.765145E-2,-6.168693E-5,-7.4934826E-4,-7.6489314E-2,-2.3109898E-1,-4.7802497E-2,1.3089144E-1,1.5737931E-1,3.6011834E-2,-4.173473E-2,9.281453E-2,-1.7562611E-3,1.21581115E-1,2.3826051E-1,1.2430783E-1,-3.5201912E-3,-5.661654E-4,-4.9900375E-2,6.405906E-2,4.1775315E-4,-1.2113737E-2,-4.5402943E-5,3.3319413E-4,1.2525535E-3,2.2979708E-1,1.0769949E-1,-2.4393521E-2,-3.2476768E-2,-2.2903746E-1,-3.1002665E-2,-2.8674147E-1,-9.411345E-2,4.2182967E-2,1.5362707E-1,-4.9152743E-2,-2.4800972E-4,1.6600352E-3,1.3375182E-2,1.2233982E-1,4.2470344E-3,-7.454133E-2,1.3963595E-2,1.7791496E-1,1.3668246E-3,-2.9385464E-2,7.912349E-2,1.6440073E-3,2.6548982E-3,9.80287E-4,-5.774969E-4,1.4264978E-1,1.2961224E-2,-7.869266E-2,-2.5099715E-2,9.311867E-2,-5.4546935E-3,-2.3613592E-4,8.3898805E-4,2.38113E-3,1.0416348E-2,1.2816059E-3,-3.778249E-5,-3.0005863E-4,-6.289523E-2,1.0785981E-3,-2.6353972E-3,-9.5187844E-4,3.5163943E-2,-1.0302993E-1,-3.7040028E-1,-1.9739579E-1,-1.1385159E-1,-7.355558E-3,8.407032E-2,-2.9666143E-2,6.718315E-4,1.6643697E-3,-4.566163E-5,-6.916295E-4,6.916737E-2,-1.5781475E-2,-5.3027462E-2,1.5135893E-1,-4.087327E-2,6.9288515E-2,3.2736138E-2,-1.00549184E-1,-1.4655321E-3,4.127245E-2,3.9539088E-2,2.1415608E-1,4.926545E-3,-9.850214E-2,1.1053584E-3,3.1939115E-2,1.9126658E-3,1.03969716E-1,2.2194782E-2,-7.3697265E-5,-3.5247422E-4,-1.0246474E-3,-4.226434E-4,4.6147703E-5,1.0933588E-3,3.505041E-4,-8.2376595E-5,1.001815E-5,-4.784435E-5,2.0408958E-4,-8.4900275E-2,-3.6129483E-3,-3.2671265E-2,9.420816E-4,-1.0567218E-4,-1.1940903E-3,1.0647595E-4,-3.9216112E-3,1.0061765E-2,-2.468012E-1,-1.3658881E-1,-6.3813165E-2,-2.9669754E-2,1.6797528E-2,2.595695E-4,9.4100286E-4,-1.0528961E-3,-4.0900861E-4,1.9699989E-2,1.8294959E-1,-5.5790234E-2,3.3823043E-2,-8.0339715E-2,2.8110773E-4,1.80453E-1,9.528038E-2,-8.622627E-2,4.7113135E-2,-4.471E-2,1.0669766E-1,-9.6793175E-2,7.036009E-2,-6.391613E-2,-1.7946608E-1,6.714421E-4,9.3986616E-2,5.6162546E-4,-2.1789104E-4,1.365359E-3,2.6259862E-3,3.821054E-2,-2.8805317E-2,-4.415834E-4,-1.15484E-3,4.1594615E-4,-2.2652447E-4,3.14786E-4,1.1270076E-1,2.7582885E-4,5.7092904E-5,-2.3289218E-4,-8.745506E-4,4.1326045E-4,-1.7990455E-2,-6.3535286E-4,-1.2048284E-3,3.979507E-2,-5.443573E-4,-1.9913889E-3,-3.5191898E-3,-2.7221083E-4,-1.4935644E-1,-2.2073716E-4,-7.854812E-4,-6.424248E-5,-3.527684E-4,3.217891E-4,9.440978E-4,7.298052E-5,-8.8773966E-5,-8.639734E-2,5.7385385E-2,7.7029224E-4,1.9643072E-3,-8.69618E-3,-1.0951359E-1,1.0583386E-1,-1.9223878E-2,-2.2630453E-4,-9.2032645E-4,3.3611566E-4,1.8800164E-3,1.0252724E-3,1.1405855E-4,-5.462678E-2,-2.0195098E-1,1.12507366E-1,-5.9014447E-2,5.4069046E-2,-1.1248476E-1,1.5499514E-1,4.1750404E-3,-2.5337135E-2,-1.5211701E-3,1.4400113E-1,7.3954337E-3,4.1548748E-2,-9.271003E-2,-3.1052712E-2,-2.3741898E-1,7.833145E-2,-3.8225703E-2,1.3466175E-3,-6.915182E-4,6.591052E-3,5.5337243E-2,2.1004638E-2,-4.2208046E-2,1.169164E-3,3.1056523E-4,-2.6878096E-2,-1.4344852E-4,-4.746556E-5,2.9393135E-5,5.8278145E-4,1.4208E-4,-1.5795497E-3,-6.231059E-4,3.422588E-5,-2.0064414E-5,-2.8088085E-2,-1.1576528E-3,1.4309827E-2,7.6533325E-2,2.4249857E-2,-7.7619486E-2,-1.546829E-1,-2.242425E-2,1.6490791E-3,3.353057E-2,-7.2247066E-2,1.8613078E-3,4.962921E-2,-7.944926E-2,-2.5848835E-3,4.014559E-3,2.1478853E-3,5.0456926E-2,1.4645969E-2,-1.1609051E-1,-4.1726843E-4,7.371515E-2,-2.0717946E-3,-6.842155E-2,-3.6484256E-2,1.7350796E-1,-9.3776055E-2,7.503265E-2,-4.3690077E-4,7.579168E-3,1.7757627E-1,-9.512134E-3,-1.2405218E-3,4.5621473E-2,-2.34461E-2,1.1286081E-1,-1.324162E-2,-1.2945956E-1,1.1674839E-1,-6.839616E-2,-3.3091807E-1,-8.917476E-2,9.091795E-6,9.745972E-4,-5.8541785E-4,-1.49246855E-2,-3.2133667E-4,2.0500421E-4,-6.756286E-4,4.2020246E-2,8.7571755E-4,9.268418E-3,2.2053719E-6,3.1286417E-4,-5.8717746E-4,-1.7256731E-2,-7.9698264E-5,-3.0524243E-4,-2.1918118E-5,1.976639E-5,-3.5356352E-4,-3.1416417E-5,5.4667532E-2,-2.0838302E-2,-1.0975699E-2,9.084053E-2,6.832387E-2,-1.3434341E-2,-1.751542E-2,-9.4734936E-4,-4.3305426E-4,-1.6035556E-3,-4.0693086E-2,5.27288E-4,4.559816E-4,-1.7814636E-3,-3.3610984E-4,-9.967948E-4,4.1658437E-4,-1.4875938E-2,-7.258211E-3,1.1934576E-3,-9.3474865E-2,8.4175525E-4,3.5933155E-4,-4.5870617E-4,-3.393714E-4,7.4383534E-2,-5.889982E-5,3.1520426E-4,-1.4873388E-3,-6.67577E-4,8.0944784E-4,1.5168666E-4,-1.722292E-4,-8.058931E-4,-6.051952E-4,-8.299331E-5,1.0048643E-1,2.0545115E-1,-1.400218E-3,-3.802424E-2,-1.2757313E-2,1.2702082E-1,1.5156E-4,-3.787249E-5,4.993146E-4,1.9468945E-1,3.3888995E-4,-3.5275508E-2,1.9238353E-3,9.454083E-4,-7.4867874E-2,2.4867263E-2,1.311148E-3,3.4447073E-4,-1.6558854E-1,2.5318025E-2,-1.5869929E-1,8.960302E-2,1.3916788E-3,2.4744959E-4,-2.3849413E-2,-1.04393385E-1,-3.8670409E-3,-2.029901E-1,-1.443976E-1,8.3284125E-2,-2.3474901E-4,-8.519661E-5,5.5882236E-4,2.1713972E-6,1.1760871E-4,8.9553E-6,1.0344088E-5,-2.2088118E-2,6.44168E-4,1.2709855E-4,-3.5493358E-4,-8.301198E-5,-3.1632214E-4,1.5168666E-4,1.0990028E-3,5.0287443E-4,1.097168E-2,1.0054085E-3,-3.140944E-2,3.8977366E-4,-2.2479087E-4,-3.794044E-5,-6.708503E-5,-5.294522E-2,1.10208985E-5,-3.774285E-5,6.28829E-5,-2.982524E-2,3.988383E-4,-3.4091793E-2,-1.18517645E-1,-4.2166207E-2,1.0496503E-3,3.7544614E-4,4.2717088E-2,1.2403146E-3,2.1385513E-3,1.4483719E-4,-4.971903E-4,4.3774544E-5,-2.3551539E-2,1.5209794E-4,3.1753271E-4,1.3760653E-3,5.275914E-4,2.027959E-3,-1.0286361E-4,-4.2626902E-4,-1.0277723E-2,2.2795603E-4,-8.108977E-4,-1.5657276E-4,5.6886397E-2,-1.2125325E-2,-2.1563973E-1,6.7359296E-4,-3.0388106E-2,1.1417187E-1,-8.542562E-2,-1.9330218E-1,2.2794913E-4,1.3849052E-3,-3.5375636E-4,7.1528354E-3,-2.3437708E-4,-1.1261023E-3,5.9876412E-2,-2.7619126E-1,-2.2959705E-3,-8.735811E-2,9.6530106E-4,1.51501E-4,-5.5436787E-5,-2.575504E-4,-8.824348E-5,2.0511805E-4,-4.2619067E-4,-9.545043E-5,-6.0008315E-4,-1.2346417E-4,-6.109369E-5,1.0329008E-2,-3.340901E-4,-5.9531925E-5,-4.1512994E-4,-2.2034943E-5,-1.2791479E-1,-3.2505423E-2,4.55262E-3,-7.381794E-2,4.2996107E-5,5.1246554E-4,-2.8872688E-4,-3.794044E-5,-5.718708E-5,-1.4450173E-4,1.5796482E-4,6.3209754E-4,-1.751697E-4,4.7206282E-5,-2.8526995E-3,-1.0950713E-3,-5.9744455E-2,-9.2858076E-4,1.6903275E-3,4.028235E-2,-1.5324084E-3,-5.0417367E-2,-5.1883757E-2,-2.2505112E-1,1.8056929E-4,-7.327676E-5,1.3134176E-3,-4.1527135E-4,-7.925908E-4,-2.930017E-3,-2.2011339E-4,-9.217316E-4,1.2801796E-4,2.691716E-5,-6.376127E-4,-1.3755742E-1,-4.1862545E-4,-2.2170245E-5,-1.2994456E-2,3.2280205E-4,-8.2010776E-4,-3.0095337E-4,-9.910613E-5,-6.473486E-4,1.5125966E-2,-1.4152606E-2,5.183355E-4,2.154836E-4,8.700162E-3,-6.472912E-2,-7.291786E-2,1.4490385E-4,-3.3068503E-3,-1.8541695E-1,-1.4055282E-3,-4.0322408E-4,-5.047699E-5,-1.6609728E-4,-3.0261575E-5,2.0420535E-4,-1.5529573E-4,-3.6338864E-5,-5.9050617E-5,1.5536924E-4,-7.631768E-4,-3.8489507E-4,-7.8691624E-4,-1.9137621E-4,-1.289312E-4,-1.9870312E-3],"categories":[],"categories_nodes":[],"categories_segments":[],"categories_sizes":[],"default_left":[0,0,0,0,0,0,0,0,0,0,0,0,0,0,0,0,0,0,0,0,0,0,0,0,0,0,0,0,0,0,0,0,0,0,0,0,0,0,0,0,0,0,0,0,0,0,0,0,0,0,0,0,0,0,0,0,0,0,0,0,0,0,0,0,0,0,0,0,0,0,0,0,0,0,0,0,0,0,0,0,0,0,0,0,0,0,0,0,0,0,0,0,0,0,0,0,0,0,0,0,0,0,0,0,0,0,0,0,0,0,0,0,0,0,0,0,0,0,0,0,0,0,0,0,0,0,0,0,0,0,0,0,0,0,0,0,0,0,0,0,0,0,0,0,0,0,0,0,0,0,0,0,0,0,0,0,0,0,0,0,0,0,0,0,0,0,0,0,0,0,0,0,0,0,0,0,0,0,0,0,0,0,0,0,0,0,0,0,0,0,0,0,0,0,0,0,0,0,0,0,0,0,0,0,0,0,0,0,0,0,0,0,0,0,0,0,0,0,0,0,0,0,0,0,0,0,0,0,0,0,0,0,0,0,0,0,0,0,0,0,0,0,0,0,0,0,0,0,0,0,0,0,0,0,0,0,0,0,0,0,0,0,0,0,0,0,0,0,0,0,0,0,0,0,0,0,0,0,0,0,0,0,0,0,0,0,0,0,0,0,0,0,0,0,0,0,0,0,0,0,0,0,0,0,0,0,0,0,0,0,0,0,0,0,0,0,0,0,0,0,0,0,0,0,0,0,0,0,0,0,0,0,0,0,0,0,0,0,0,0,0,0,0,0,0,0,0,0,0,0,0,0,0,0,0,0,0,0,0,0,0,0,0,0,0,0,0,0,0,0,0,0,0,0,0,0,0,0,0,0,0,0,0,0,0,0,0,0,0,0,0,0,0,0,0,0,0,0,0,0,0,0,0,0,0,0,0,0,0,0,0,0,0,0,0,0,0,0,0,0,0,0,0,0,0,0,0,0,0,0,0,0,0,0,0,0,0,0,0,0,0,0,0,0,0,0,0,0,0,0,0,0,0,0,0,0,0,0,0,0,0,0,0,0,0,0,0,0,0,0,0,0,0,0,0,0,0,0,0,0,0,0,0,0,0,0,0,0,0,0,0,0,0,0,0,0,0,0,0,0,0,0,0,0,0,0,0,0,0,0,0,0,0,0,0,0,0,0,0,0,0,0,0,0,0,0,0,0,0,0,0,0,0,0,0,0,0,0,0,0,0],"id":2,"left_children":[1,3,5,7,9,11,13,15,17,19,21,23,25,27,29,31,33,35,37,39,41,43,45,47,-1,49,-1,51,53,-1,-1,55,57,59,61,63,65,67,69,71,73,75,77,-1,-1,79,81,-1,83,-1,-1,-1,85,87,89,91,93,95,97,99,101,103,105,-1,-1,107,109,111,113,115,117,-1,119,121,-1,-1,-1,-1,123,125,127,129,131,133,-1,-1,-1,135,-1,-1,-1,137,-1,-1,-1,139,141,143,145,147,149,151,153,-1,-1,-1,-1,155,157,159,161,163,165,167,169,-1,171,173,175,177,179,-1,181,-1,183,185,-1,-1,-1,-1,-1,-1,-1,-1,-1,-1,-1,187,189,191,-1,-1,-1,-1,-1,193,195,197,199,201,203,-1,-1,205,-1,207,209,211,213,215,-1,217,219,221,223,225,227,229,231,233,235,237,239,-1,-1,-1,-1,241,243,-1,-1,-1,-1,-1,245,-1,-1,-1,-1,-1,247,-1,249,251,-1,-1,-1,-1,253,-1,-1,-1,-1,-1,255,-1,-1,257,259,-1,-1,261,263,265,267,-1,-1,-1,-1,-1,-1,269,271,273,275,277,279,281,283,285,-1,287,289,291,293,295,297,299,301,-1,303,305,307,309,311,-1,-1,313,315,-1,-1,-1,-1,-1,-1,-1,-1,317,-1,319,321,323,325,327,329,-1,331,333,335,337,339,-1,341,-1,343,345,347,-1,349,-1,351,353,355,357,359,-1,361,363,365,-1,367,369,371,373,375,377,379,381,383,-1,-1,-1,385,-1,-1,-1,387,-1,389,-1,-1,-1,391,-1,-1,-1,-1,-1,-1,393,395,397,399,401,403,405,-1,-1,-1,407,-1,-1,409,-1,-1,-1,411,413,-1,415,-1,-1,-1,-1,417,-1,-1,-1,-1,-1,-1,-1,-1,-1,-1,419,421,-1,423,425,427,-1,-1,-1,429,-1,431,433,-1,435,437,-1,-1,439,441,443,445,-1,-1,447,449,-1,451,453,455,-1,-1,-1,-1,-1,-1,-1,457,-1,-1,-1,-1,-1,-1,-1,-1,459,-1,461,-1,-1,-1,-1,463,-1,-1,465,467,-1,469,471,473,-1,-1,475,-1,-1,-1,-1,-1,477,-1,-1,-1,-1,-1,-1,-1,479,-1,-1,-1,481,483,485,-1,487,489,491,493,-1,-1,-1,495,-1,-1,497,499,-1,501,-1,-1,-1,-1,-1,-1,-1,-1,-1,-1,-1,503,-1,-1,-1,-1,505,507,509,511,-1,-1,-1,-1,-1,-1,-1,-1,-1,-1,-1,-1,513,515,-1,517,-1,519,521,523,-1,-1,-1,-1,-1,-1,-1,-1,-1,-1,-1,525,-1,-1,527,-1,-1,-1,-1,-1,529,531,-1,-1,533,535,537,-1,-1,539,-1,-1,-1,-1,-1,-1,-1,-1,-1,-1,-1,-1,-1,-1,-1,-1],"loss_changes":[1.2099708E0,1.0693456E0,2.367717E-1,9.134974E-1,7.71511E-1,1.3848752E-1,1.21934175E-1,1.1492677E0,8.225093E-1,3.805716E-1,5.155734E-1,1.55081935E-2,2.3676574E-2,1.4365363E-1,2.536187E-3,4.3690228E-1,4.507751E-1,3.1117892E-1,7.763364E-1,2.5881925E-1,1.1641753E-1,4.246235E-2,6.149862E-2,4.74615E-3,0E0,1.1572782E-3,0E0,3.1107426E-2,4.555469E-2,0E0,0E0,2.0741068E-1,5.478027E-1,2.0400098E-1,8.9419484E-2,4.3396115E-2,2.8171927E-1,6.127698E-1,3.196076E-1,1.3788979E-1,4.880476E-2,5.416119E-2,9.172022E-2,0E0,0E0,1.9119244E-2,2.5655523E-2,0E0,5.603973E-4,0E0,0E0,0E0,1.2781143E-2,2.0560771E-2,3.4943013E-4,1.17773265E-1,7.2410107E-3,6.0812533E-2,2.1839213E-1,5.396059E-2,5.3656705E-2,8.750349E-3,2.3607505E-3,0E0,0E0,1.8979034E-1,1.6069621E-1,5.017296E-1,6.645349E-1,1.2002038E-1,1.0687512E-1,0E0,7.163123E-2,2.4630852E-2,0E0,0E0,0E0,0E0,2.3365587E-2,9.1447757E-4,3.617864E-3,1.7251543E-3,2.759669E-3,1.3403033E-4,0E0,0E0,0E0,5.5333186E-4,0E0,0E0,0E0,2.8392464E-2,0E0,0E0,0E0,3.1114837E-2,7.82492E-3,1.6172242E-1,2.1772325E-1,2.0864964E-2,4.271075E-3,3.9690733E-3,2.207168E-3,0E0,0E0,0E0,0E0,2.2153623E-1,1.5470237E-1,1.333875E-2,2.5226772E-2,4.0709752E-1,3.0329156E-1,2.358604E-1,5.407038E-1,0E0,4.91626E-2,7.340653E-3,3.1827927E-2,2.467802E-2,4.1290075E-3,0E0,5.6862E-3,0E0,5.946189E-3,1.089978E-4,0E0,0E0,0E0,0E0,0E0,0E0,0E0,0E0,0E0,0E0,0E0,4.8169494E-4,5.266249E-3,3.8081743E-3,0E0,0E0,0E0,0E0,0E0,1.1754893E-2,1.5092015E-2,1.9672543E-2,4.416436E-3,2.9473123E-4,9.450107E-4,0E0,0E0,2.608137E-4,0E0,1.2090921E-1,2.0042062E-3,1.0783982E-1,1.3573286E-1,6.164219E-4,0E0,1.1416256E-2,5.516693E-3,2.3397651E-1,2.4954419E-1,1.2658702E-1,2.6178688E-1,3.963124E-2,1.7049603E-1,4.0470225E-1,5.0868654E-1,4.528481E-2,3.8603567E-2,0E0,0E0,0E0,0E0,5.5921823E-3,8.230046E-3,0E0,0E0,0E0,0E0,0E0,8.433461E-4,0E0,0E0,0E0,0E0,0E0,9.47851E-4,0E0,5.798389E-5,1.0636952E-3,0E0,0E0,0E0,0E0,1.3847351E-3,0E0,0E0,0E0,0E0,0E0,2.8805869E-5,0E0,0E0,1.0447759E-2,1.7050602E-2,0E0,0E0,5.6380253E-2,7.520665E-2,5.8539256E-2,2.3612551E-2,0E0,0E0,0E0,0E0,0E0,0E0,1.436892E-1,1.6406429E-1,1.287874E-1,6.0559705E-2,1.8132025E-2,3.172256E-2,1.3394386E-1,1.3196671E-1,3.955801E-3,0E0,8.9311E-2,1.111786E-1,1.3705872E-1,3.0201012E-1,1.0733439E-1,5.665004E-1,7.3161647E-3,3.8601374E-3,0E0,3.3240344E-3,1.5975075E-2,9.583393E-3,6.3419284E-4,2.6941746E-3,0E0,0E0,3.249664E-5,1.7360548E-5,0E0,0E0,0E0,0E0,0E0,0E0,0E0,0E0,6.141928E-4,0E0,1.2487161E-2,1.9777186E-2,2.9153083E-2,6.5703467E-3,1.2692213E-3,1.3129369E-2,0E0,3.4902804E-3,3.0089654E-3,1.1277218E-2,4.4492178E-2,1.088455E-1,0E0,8.017335E-3,0E0,3.281332E-2,2.611386E-3,2.9539838E-3,0E0,1.7350689E-3,0E0,4.2187683E-3,2.2074566E-3,5.6328773E-2,1.5302055E-2,5.1824883E-2,0E0,3.157639E-4,2.0860612E-2,5.66809E-3,0E0,3.6158353E-2,4.1611496E-2,1.5522584E-2,2.0392343E-1,4.6899855E-1,4.8069768E-3,2.1563664E-2,1.0705447E-1,1.834521E-1,0E0,0E0,0E0,1.2858782E-4,0E0,0E0,0E0,2.3057624E-3,0E0,7.294389E-5,0E0,0E0,0E0,4.647061E-4,0E0,0E0,0E0,0E0,0E0,0E0,8.174982E-4,6.2402245E-4,2.0999731E-3,4.5215115E-3,1.3678614E-2,1.0645311E-2,1.19038334E-4,0E0,0E0,0E0,2.5595017E-3,0E0,0E0,2.1398828E-5,0E0,0E0,0E0,2.6817748E-3,1.0214641E-2,0E0,4.7683954E-2,0E0,0E0,0E0,0E0,9.578198E-3,0E0,0E0,0E0,0E0,0E0,0E0,0E0,0E0,0E0,0E0,1.1023916E-2,3.221017E-2,0E0,2.697037E-3,1.8676303E-3,2.6898608E-3,0E0,0E0,0E0,3.1072795E-3,0E0,1.1263951E-4,2.7809676E-3,0E0,1.6775765E-3,1.135E-2,0E0,0E0,9.614055E-2,1.4206117E-1,1.4322233E-1,2.6237845E-2,0E0,0E0,3.1117462E-3,2.6822835E-3,0E0,2.0895875E-1,4.7979087E-2,3.0500703E-3,0E0,0E0,0E0,0E0,0E0,0E0,0E0,9.989098E-5,0E0,0E0,0E0,0E0,0E0,0E0,0E0,0E0,9.3642966E-4,0E0,1.5539331E-3,0E0,0E0,0E0,0E0,6.9287885E-4,0E0,0E0,5.0665945E-4,3.1442102E-4,0E0,1.0917741E-3,1.7665297E-2,2.2517042E-2,0E0,0E0,1.4180625E-3,0E0,0E0,0E0,0E0,0E0,3.109863E-4,0E0,0E0,0E0,0E0,0E0,0E0,0E0,5.0519477E-5,0E0,0E0,0E0,3.006421E-4,5.3682824E-4,1.3101131E-2,0E0,1.5511356E-2,3.778106E-2,4.4504017E-2,1.7689848E-1,0E0,0E0,0E0,6.0600584E-4,0E0,0E0,2.7194768E-2,3.2610893E-3,0E0,1.1176243E-3,0E0,0E0,0E0,0E0,0E0,0E0,0E0,0E0,0E0,0E0,0E0,2.2197433E-5,0E0,0E0,0E0,0E0,6.0758293E-3,1.0408391E-3,3.8252303E-3,7.5576827E-4,0E0,0E0,0E0,0E0,0E0,0E0,0E0,0E0,0E0,0E0,0E0,0E0,1.5966594E-3,2.3371293E-3,0E0,1.8147193E-4,0E0,1.4100362E-2,1.3621692E-2,8.103371E-2,0E0,0E0,0E0,0E0,0E0,0E0,0E0,0E0,0E0,0E0,0E0,1.5771389E-4,0E0,0E0,5.98075E-5,0E0,0E0,0E0,0E0,0E0,5.423343E-4,3.047078E-5,0E0,0E0,4.911563E-4,1.0156035E-3,6.676279E-4,0E0,0E0,5.9327066E-2,0E0,0E0,0E0,0E0,0E0,0E0,0E0,0E0,0E0,0E0,0E0,0E0,0E0,0E0,0E0,0E0],"parents":[2147483647,0,0,1,1,2,2,3,3,4,4,5,5,6,6,7,7,8,8,9,9,10,10,11,11,12,12,13,13,14,14,15,15,16,16,17,17,18,18,19,19,20,20,21,21,22,22,23,23,25,25,27,27,28,28,31,31,32,32,33,33,34,34,35,35,36,36,37,37,38,38,39,39,40,40,41,41,42,42,45,45,46,46,48,48,52,52,53,53,54,54,55,55,56,56,57,57,58,58,59,59,60,60,61,61,62,62,65,65,66,66,67,67,68,68,69,69,70,70,72,72,73,73,78,78,79,79,80,80,81,81,82,82,83,83,87,87,91,91,95,95,96,96,97,97,98,98,99,99,100,100,101,101,102,102,107,107,108,108,109,109,110,110,111,111,112,112,113,113,114,114,116,116,117,117,118,118,119,119,120,120,122,122,124,124,125,125,137,137,138,138,139,139,145,145,146,146,147,147,148,148,149,149,150,150,153,153,155,155,156,156,157,157,158,158,159,159,161,161,162,162,163,163,164,164,165,165,166,166,167,167,168,168,169,169,170,170,171,171,172,172,177,177,178,178,184,184,190,190,192,192,193,193,198,198,204,204,207,207,208,208,211,211,212,212,213,213,214,214,221,221,222,222,223,223,224,224,225,225,226,226,227,227,228,228,229,229,231,231,232,232,233,233,234,234,235,235,236,236,237,237,238,238,240,240,241,241,242,242,243,243,244,244,247,247,248,248,257,257,259,259,260,260,261,261,262,262,263,263,264,264,266,266,267,267,268,268,269,269,270,270,272,272,274,274,275,275,276,276,278,278,280,280,281,281,282,282,283,283,284,284,286,286,287,287,288,288,290,290,291,291,292,292,293,293,294,294,295,295,296,296,297,297,298,298,302,302,306,306,308,308,312,312,319,319,320,320,321,321,322,322,323,323,324,324,325,325,329,329,332,332,336,336,337,337,339,339,344,344,355,355,356,356,358,358,359,359,360,360,364,364,366,366,367,367,369,369,370,370,373,373,374,374,375,375,376,376,379,379,380,380,382,382,383,383,384,384,392,392,401,401,403,403,408,408,411,411,412,412,414,414,415,415,416,416,419,419,425,425,433,433,437,437,438,438,439,439,441,441,442,442,443,443,444,444,448,448,451,451,452,452,454,454,466,466,471,471,472,472,473,473,474,474,487,487,488,488,490,490,492,492,493,493,494,494,506,506,509,509,515,515,516,516,519,519,520,520,521,521,524,524],"right_children":[2,4,6,8,10,12,14,16,18,20,22,24,26,28,30,32,34,36,38,40,42,44,46,48,-1,50,-1,52,54,-1,-1,56,58,60,62,64,66,68,70,72,74,76,78,-1,-1,80,82,-1,84,-1,-1,-1,86,88,90,92,94,96,98,100,102,104,106,-1,-1,108,110,112,114,116,118,-1,120,122,-1,-1,-1,-1,124,126,128,130,132,134,-1,-1,-1,136,-1,-1,-1,138,-1,-1,-1,140,142,144,146,148,150,152,154,-1,-1,-1,-1,156,158,160,162,164,166,168,170,-1,172,174,176,178,180,-1,182,-1,184,186,-1,-1,-1,-1,-1,-1,-1,-1,-1,-1,-1,188,190,192,-1,-1,-1,-1,-1,194,196,198,200,202,204,-1,-1,206,-1,208,210,212,214,216,-1,218,220,222,224,226,228,230,232,234,236,238,240,-1,-1,-1,-1,242,244,-1,-1,-1,-1,-1,246,-1,-1,-1,-1,-1,248,-1,250,252,-1,-1,-1,-1,254,-1,-1,-1,-1,-1,256,-1,-1,258,260,-1,-1,262,264,266,268,-1,-1,-1,-1,-1,-1,270,272,274,276,278,280,282,284,286,-1,288,290,292,294,296,298,300,302,-1,304,306,308,310,312,-1,-1,314,316,-1,-1,-1,-1,-1,-1,-1,-1,318,-1,320,322,324,326,328,330,-1,332,334,336,338,340,-1,342,-1,344,346,348,-1,350,-1,352,354,356,358,360,-1,362,364,366,-1,368,370,372,374,376,378,380,382,384,-1,-1,-1,386,-1,-1,-1,388,-1,390,-1,-1,-1,392,-1,-1,-1,-1,-1,-1,394,396,398,400,402,404,406,-1,-1,-1,408,-1,-1,410,-1,-1,-1,412,414,-1,416,-1,-1,-1,-1,418,-1,-1,-1,-1,-1,-1,-1,-1,-1,-1,420,422,-1,424,426,428,-1,-1,-1,430,-1,432,434,-1,436,438,-1,-1,440,442,444,446,-1,-1,448,450,-1,452,454,456,-1,-1,-1,-1,-1,-1,-1,458,-1,-1,-1,-1,-1,-1,-1,-1,460,-1,462,-1,-1,-1,-1,464,-1,-1,466,468,-1,470,472,474,-1,-1,476,-1,-1,-1,-1,-1,478,-1,-1,-1,-1,-1,-1,-1,480,-1,-1,-1,482,484,486,-1,488,490,492,494,-1,-1,-1,496,-1,-1,498,500,-1,502,-1,-1,-1,-1,-1,-1,-1,-1,-1,-1,-1,504,-1,-1,-1,-1,506,508,510,512,-1,-1,-1,-1,-1,-1,-1,-1,-1,-1,-1,-1,514,516,-1,518,-1,520,522,524,-1,-1,-1,-1,-1,-1,-1,-1,-1,-1,-1,526,-1,-1,528,-1,-1,-1,-1,-1,530,532,-1,-1,534,536,538,-1,-1,540,-1,-1,-1,-1,-1,-1,-1,-1,-1,-1,-1,-1,-1,-1,-1,-1],"split_conditions":[-2.5157242E-3,2.0293519E-2,-7.53879E-3,8.523224E-3,9.80214E-3,1.2485382E-2,9.394561E-3,9.323287E-3,1.019435E-2,-5.482735E-3,-1.5361784E-2,2.3128409E-2,1.1314497E-2,8.310613E-3,-3.3714727E-3,-6.7319795E-3,-1.68753E-2,2.4595656E-2,8.960653E-3,-1.512725E-2,1.098893E-2,3.6944155E-2,5.294722E-3,-7.61869E-3,-7.230706E-4,-2.4853442E-3,1.5183586E-3,-1.3263391E-2,-2.3298766E-2,-6.168693E-5,-7.4934826E-4,-5.2176034E-3,-6.83576E-3,4.6536312E-3,1.5921136E-2,-3.194015E-2,-2.1696428E-2,5.7576005E-3,-3.4998634E-3,-4.1085854E-3,1.7131334E-2,-8.665351E-3,9.911131E-3,-3.5201912E-3,-5.661654E-4,-1.4430719E-2,8.145505E-3,4.1775315E-4,-1.0293604E-2,-4.5402943E-5,3.3319413E-4,1.2525535E-3,-1.3141599E-2,-1.1304685E-2,-1.2356519E-2,2.9845492E-3,6.324823E-3,2.6796374E-3,-1.1122264E-2,-7.702946E-4,-3.2271096E-3,-6.0551288E-3,3.0792686E-3,-2.4800972E-4,1.6600352E-3,2.2007346E-4,1.5648881E-4,5.1478078E-3,5.7074847E-3,-1.1804019E-2,-1.3006185E-2,1.3668246E-3,5.978267E-4,-6.340717E-3,1.6440073E-3,2.6548982E-3,9.80287E-4,-5.774969E-4,-1.8779095E-2,6.961253E-3,-7.4400296E-3,5.7483674E-3,4.938526E-3,-3.0026527E-3,-2.3613592E-4,8.3898805E-4,2.38113E-3,3.0961744E-3,1.2816059E-3,-3.778249E-5,-3.0005863E-4,1.20640965E-2,1.0785981E-3,-2.6353972E-3,-9.5187844E-4,1.3152053E-2,-1.6660236E-2,-4.9822195E-3,-7.2738994E-3,-2.2144964E-2,-4.2997333E-3,-1.3356221E-2,-2.3803303E-3,6.718315E-4,1.6643697E-3,-4.566163E-5,-6.916295E-4,-6.4255027E-3,-5.6551592E-3,-1.31806275E-2,2.5760138E-3,1.044459E-2,-1.0435703E-2,6.0898196E-3,1.7756788E-3,-1.4655321E-3,2.1712737E-2,1.16913915E-2,1.924364E-3,-1.1302942E-2,6.113003E-3,1.1053584E-3,9.151258E-3,1.9126658E-3,-9.958112E-3,4.938526E-3,-7.3697265E-5,-3.5247422E-4,-1.0246474E-3,-4.226434E-4,4.6147703E-5,1.0933588E-3,3.505041E-4,-8.2376595E-5,1.001815E-5,-4.784435E-5,2.0408958E-4,-7.428481E-3,-1.7529424E-2,7.310183E-3,9.420816E-4,-1.0567218E-4,-1.1940903E-3,1.0647595E-4,-3.9216112E-3,6.8657296E-3,-1.149676E-3,-8.631787E-3,-7.4079963E-3,9.8002754E-5,-6.901441E-3,2.595695E-4,9.4100286E-4,3.3617462E-3,-4.0900861E-4,2.1787789E-3,9.644905E-3,-2.5368758E-2,-1.51446825E-2,1.7735395E-3,2.8110773E-4,-1.8953698E-2,-8.474529E-3,4.144597E-3,-2.841259E-2,3.2541002E-3,-1.9433782E-2,-3.446756E-3,-2.1775734E-2,-3.5833847E-3,-6.544124E-3,-4.6857647E-3,3.9261213E-4,5.6162546E-4,-2.1789104E-4,1.365359E-3,2.6259862E-3,6.4142764E-4,1.4521E-2,-4.415834E-4,-1.15484E-3,4.1594615E-4,-2.2652447E-4,3.14786E-4,1.4686483E-2,2.7582885E-4,5.7092904E-5,-2.3289218E-4,-8.745506E-4,4.1326045E-4,5.8926167E-3,-6.3535286E-4,9.5594805E-3,-1.7378314E-3,-5.443573E-4,-1.9913889E-3,-3.5191898E-3,-2.7221083E-4,1.702306E-4,-2.2073716E-4,-7.854812E-4,-6.424248E-5,-3.527684E-4,3.217891E-4,1.1273709E-2,7.298052E-5,-8.8773966E-5,-1.1978242E-2,-2.3152187E-2,7.7029224E-4,1.9643072E-3,-4.037792E-4,-6.2729255E-3,3.4862454E-3,8.652009E-3,-2.2630453E-4,-9.2032645E-4,3.3611566E-4,1.8800164E-3,1.0252724E-3,1.1405855E-4,-3.5167148E-3,-5.8064447E-3,9.28628E-3,-1.712218E-2,5.820453E-3,1.2156617E-2,5.6000836E-3,-3.286044E-2,-1.43978065E-2,-1.5211701E-3,4.4895834E-3,-1.7162222E-2,-2.0968348E-2,-2.120545E-2,-6.317749E-3,2.3805227E-2,-1.728822E-2,1.0927259E-2,1.3466175E-3,2.9326375E-3,-1.330944E-2,-3.0003786E-3,6.4142764E-4,1.6414221E-2,1.169164E-3,3.1056523E-4,-6.630465E-3,-6.630465E-3,-4.746556E-5,2.9393135E-5,5.8278145E-4,1.4208E-4,-1.5795497E-3,-6.231059E-4,3.422588E-5,-2.0064414E-5,7.736535E-3,-1.1576528E-3,-4.6857647E-3,9.475509E-3,6.0022757E-3,-3.0138062E-2,4.5591415E-4,8.045359E-3,1.6490791E-3,-5.255553E-4,1.3102891E-2,-9.860061E-3,-1.3414894E-2,1.1841629E-2,-2.5848835E-3,1.1324755E-2,2.1478853E-3,-1.5482369E-2,8.859565E-3,8.210167E-3,-4.1726843E-4,1.00186E-2,-2.0717946E-3,-2.4775594E-2,2.6470001E-3,5.530928E-3,-3.3507694E-3,-1.0193672E-3,-4.3690077E-4,8.7366694E-5,7.565646E-3,4.2412607E-3,-1.2405218E-3,3.917593E-3,-4.973224E-3,1.1776489E-2,9.558582E-3,-5.581235E-3,3.0622522E-3,-6.596842E-3,-7.857377E-3,-6.2476695E-3,9.091795E-6,9.745972E-4,-5.8541785E-4,-1.732637E-2,-3.2133667E-4,2.0500421E-4,-6.756286E-4,-6.901441E-3,8.7571755E-4,5.887331E-3,2.2053719E-6,3.1286417E-4,-5.8717746E-4,7.052636E-3,-7.9698264E-5,-3.0524243E-4,-2.1918118E-5,1.976639E-5,-3.5356352E-4,-3.1416417E-5,8.114945E-3,-8.3175525E-3,-4.8383325E-3,5.5491203E-3,-3.6301923E-3,2.346438E-2,6.4226277E-3,-9.4734936E-4,-4.3305426E-4,-1.6035556E-3,-5.478342E-3,5.27288E-4,4.559816E-4,4.5591415E-4,-3.3610984E-4,-9.967948E-4,4.1658437E-4,-4.755357E-4,-5.445135E-3,1.1934576E-3,2.6828708E-2,8.4175525E-4,3.5933155E-4,-4.5870617E-4,-3.393714E-4,3.476741E-5,-5.889982E-5,3.1520426E-4,-1.4873388E-3,-6.67577E-4,8.0944784E-4,1.5168666E-4,-1.722292E-4,-8.058931E-4,-6.051952E-4,-8.299331E-5,1.1576891E-2,2.7306706E-2,-1.400218E-3,3.284058E-4,3.9921445E-3,-9.16722E-3,1.5156E-4,-3.787249E-5,4.993146E-4,8.635646E-3,3.3888995E-4,1.14464685E-2,5.887331E-3,9.454083E-4,-2.590578E-2,3.1705396E-3,1.311148E-3,3.4447073E-4,-1.1874217E-2,-8.207299E-3,-7.3146075E-3,9.699548E-3,1.3916788E-3,2.4744959E-4,1.20763555E-2,1.1618633E-2,-3.8670409E-3,-1.3235379E-2,-2.8977946E-3,1.0384344E-2,-2.3474901E-4,-8.519661E-5,5.5882236E-4,2.1713972E-6,1.1760871E-4,8.9553E-6,1.0344088E-5,6.4142764E-4,6.44168E-4,1.2709855E-4,-3.5493358E-4,-8.301198E-5,-3.1632214E-4,1.5168666E-4,1.0990028E-3,5.0287443E-4,-8.7120375E-3,1.0054085E-3,1.1273709E-2,3.8977366E-4,-2.2479087E-4,-3.794044E-5,-6.708503E-5,7.810844E-3,1.10208985E-5,-3.774285E-5,-7.344806E-3,-5.845116E-3,3.988383E-4,5.557168E-3,1.1398453E-2,4.703967E-3,1.0496503E-3,3.7544614E-4,-3.0003786E-3,1.2403146E-3,2.1385513E-3,1.4483719E-4,-4.971903E-4,4.3774544E-5,3.0385067E-3,1.5209794E-4,3.1753271E-4,1.3760653E-3,5.275914E-4,2.027959E-3,-1.0286361E-4,-4.2626902E-4,3.9921445E-3,2.2795603E-4,-8.108977E-4,-1.5657276E-4,3.298353E-4,1.2893703E-2,-4.8383325E-3,6.7359296E-4,6.0415454E-3,2.0283377E-2,4.1549467E-3,4.8563923E-3,2.2794913E-4,1.3849052E-3,-3.5375636E-4,1.2935266E-3,-2.3437708E-4,-1.1261023E-3,4.2850412E-3,-9.8119415E-3,-2.2959705E-3,-2.4853442E-3,9.6530106E-4,1.51501E-4,-5.5436787E-5,-2.575504E-4,-8.824348E-5,2.0511805E-4,-4.2619067E-4,-9.545043E-5,-6.0008315E-4,-1.2346417E-4,-6.109369E-5,5.820453E-3,-3.340901E-4,-5.9531925E-5,-4.1512994E-4,-2.2034943E-5,-7.696736E-3,4.409858E-3,-9.268941E-3,-5.448327E-3,4.2996107E-5,5.1246554E-4,-2.8872688E-4,-3.794044E-5,-5.718708E-5,-1.4450173E-4,1.5796482E-4,6.3209754E-4,-1.751697E-4,4.7206282E-5,-2.8526995E-3,-1.0950713E-3,-1.728822E-2,1.5094523E-2,1.6903275E-3,3.517362E-3,-1.5324084E-3,1.0578299E-2,1.9265259E-4,4.977689E-3,1.8056929E-4,-7.327676E-5,1.3134176E-3,-4.1527135E-4,-7.925908E-4,-2.930017E-3,-2.2011339E-4,-9.217316E-4,1.2801796E-4,2.691716E-5,-6.376127E-4,9.415648E-4,-4.1862545E-4,-2.2170245E-5,8.269381E-3,3.2280205E-4,-8.2010776E-4,-3.0095337E-4,-9.910613E-5,-6.473486E-4,5.6457412E-3,6.14842E-3,5.183355E-4,2.154836E-4,5.142895E-3,1.182086E-2,4.6114268E-4,1.4490385E-4,-3.3068503E-3,-1.0416778E-2,-1.4055282E-3,-4.0322408E-4,-5.047699E-5,-1.6609728E-4,-3.0261575E-5,2.0420535E-4,-1.5529573E-4,-3.6338864E-5,-5.9050617E-5,1.5536924E-4,-7.631768E-4,-3.8489507E-4,-7.8691624E-4,-1.9137621E-4,-1.289312E-4,-1.9870312E-3],"split_indices":[310,691,735,1316,94,438,1093,1317,691,903,365,111,39,1295,0,1038,807,1241,1406,700,1544,0,1365,17,0,0,0,910,843,0,0,1583,1039,967,98,6,1567,1600,1575,189,434,6,712,0,0,88,20,0,13,0,0,0,451,956,2,100,1,645,1510,934,1344,9,0,0,0,108,324,745,1601,1422,351,0,1097,379,0,0,0,0,1526,1,9,0,0,6,0,0,0,0,0,0,0,57,0,0,0,10,2,17,13,975,8,6,17,0,0,0,0,1626,1837,7,447,142,878,1561,224,0,809,1,839,1652,108,0,0,0,101,0,0,0,0,0,0,0,0,0,0,0,0,5,2,0,0,0,0,0,0,0,5,42,1548,5,0,0,0,0,0,539,79,332,1595,0,0,112,12,1046,1954,921,213,23,1953,884,255,14,34,0,0,0,0,1,21,0,0,0,0,0,20,0,0,0,0,0,1,0,0,0,0,0,0,0,77,0,0,0,0,0,1,0,0,2,1624,0,0,370,2023,1424,1072,0,0,0,0,0,0,768,6,1327,848,0,10,1326,1931,6,0,189,1894,383,1953,115,1724,7,39,0,0,0,0,0,20,0,0,0,0,0,0,0,0,0,0,0,0,0,0,15,47,1336,33,0,0,0,22,0,196,1677,1749,0,1,0,2,0,0,0,1,0,173,0,1872,17,14,0,0,98,0,0,1942,1021,31,1678,1454,1,1343,42,130,0,0,0,6,0,0,0,1,0,0,0,0,0,0,0,0,0,0,0,0,1,5,0,155,71,110,0,0,0,0,8,0,0,0,0,0,0,14,24,0,1001,0,0,0,0,417,0,0,0,0,0,0,0,0,0,0,87,29,0,2,0,5,0,0,0,20,0,0,1,0,32,74,0,0,7,1903,1322,20,0,0,0,56,0,13,561,1,0,0,0,0,0,0,0,1,0,0,0,0,0,0,0,0,5,0,1,0,0,0,0,1,0,0,2,2,0,0,38,301,0,0,0,0,0,0,0,0,0,0,0,0,0,0,0,0,1,0,0,0,1,0,0,0,432,1130,1651,445,0,0,0,1,0,0,0,5,0,1,0,0,0,0,0,0,0,0,0,0,0,0,0,0,0,0,1904,0,2,40,0,0,0,0,0,0,0,0,0,0,0,0,6,181,0,0,0,87,8,208,0,0,0,0,0,0,0,0,0,0,0,22,0,0,0,0,0,0,0,0,0,0,0,0,1,181,14,0,0,5,0,0,0,0,0,0,0,0,0,0,0,0,0,0,0,0],"split_type":[0,0,0,0,0,0,0,0,0,0,0,0,0,0,0,0,0,0,0,0,0,0,0,0,0,0,0,0,0,0,0,0,0,0,0,0,0,0,0,0,0,0,0,0,0,0,0,0,0,0,0,0,0,0,0,0,0,0,0,0,0,0,0,0,0,0,0,0,0,0,0,0,0,0,0,0,0,0,0,0,0,0,0,0,0,0,0,0,0,0,0,0,0,0,0,0,0,0,0,0,0,0,0,0,0,0,0,0,0,0,0,0,0,0,0,0,0,0,0,0,0,0,0,0,0,0,0,0,0,0,0,0,0,0,0,0,0,0,0,0,0,0,0,0,0,0,0,0,0,0,0,0,0,0,0,0,0,0,0,0,0,0,0,0,0,0,0,0,0,0,0,0,0,0,0,0,0,0,0,0,0,0,0,0,0,0,0,0,0,0,0,0,0,0,0,0,0,0,0,0,0,0,0,0,0,0,0,0,0,0,0,0,0,0,0,0,0,0,0,0,0,0,0,0,0,0,0,0,0,0,0,0,0,0,0,0,0,0,0,0,0,0,0,0,0,0,0,0,0,0,0,0,0,0,0,0,0,0,0,0,0,0,0,0,0,0,0,0,0,0,0,0,0,0,0,0,0,0,0,0,0,0,0,0,0,0,0,0,0,0,0,0,0,0,0,0,0,0,0,0,0,0,0,0,0,0,0,0,0,0,0,0,0,0,0,0,0,0,0,0,0,0,0,0,0,0,0,0,0,0,0,0,0,0,0,0,0,0,0,0,0,0,0,0,0,0,0,0,0,0,0,0,0,0,0,0,0,0,0,0,0,0,0,0,0,0,0,0,0,0,0,0,0,0,0,0,0,0,0,0,0,0,0,0,0,0,0,0,0,0,0,0,0,0,0,0,0,0,0,0,0,0,0,0,0,0,0,0,0,0,0,0,0,0,0,0,0,0,0,0,0,0,0,0,0,0,0,0,0,0,0,0,0,0,0,0,0,0,0,0,0,0,0,0,0,0,0,0,0,0,0,0,0,0,0,0,0,0,0,0,0,0,0,0,0,0,0,0,0,0,0,0,0,0,0,0,0,0,0,0,0,0,0,0,0,0,0,0,0,0,0,0,0,0,0,0,0,0,0,0,0,0,0,0,0,0,0,0,0,0,0,0,0,0,0,0,0,0,0,0,0,0,0,0,0,0,0,0,0,0,0,0,0,0,0,0,0,0,0,0,0],"sum_hessian":[9.71E2,9E2,7.1E1,7.66E2,1.34E2,2.2E1,4.9E1,1.46E2,6.2E2,1.11E2,2.3E1,1.3E1,9E0,4.7E1,2E0,8E1,6.6E1,1.68E2,4.52E2,6.7E1,4.4E1,6E0,1.7E1,9E0,4E0,2E0,7E0,3.4E1,1.3E1,1E0,1E0,3.1E1,4.9E1,4.7E1,1.9E1,2.4E1,1.44E2,4.05E2,4.7E1,3.4E1,3.3E1,2E1,2.4E1,5E0,1E0,9E0,8E0,1E0,8E0,1E0,1E0,8E0,2.6E1,1E1,3E0,2.5E1,6E0,1.1E1,3.8E1,3.1E1,1.6E1,1.7E1,2E0,1E0,2.3E1,1.15E2,2.9E1,1.69E2,2.36E2,2.5E1,2.2E1,5E0,2.9E1,1.8E1,1.5E1,1.6E1,4E0,2E0,2.2E1,3E0,6E0,2E0,6E0,6E0,2E0,2E0,2.4E1,2E0,8E0,1E0,2E0,2.1E1,4E0,4E0,2E0,6E0,5E0,1.8E1,2E1,2.5E1,6E0,1E1,6E0,3E0,1.4E1,1E0,1E0,3.9E1,7.6E1,4E0,2.5E1,1E2,6.9E1,4.6E1,1.9E2,3E0,2.2E1,5E0,1.7E1,2E1,9E0,1E1,8E0,8E0,1.4E1,2E0,1E0,3E0,3E0,1E0,1E0,4E0,2E0,4E0,2E0,1E0,1E0,1.5E1,6E0,3E0,3E0,1E0,4E0,1E0,1.7E1,4E0,1.6E1,1.6E1,9E0,3E0,3E0,2E0,8E0,2E0,4E0,2.8E1,1.1E1,4.2E1,3.4E1,3E0,1E0,1.5E1,1E1,6.6E1,3.4E1,1.7E1,5.2E1,1E1,3.6E1,1.31E2,5.9E1,1.3E1,9E0,4E0,1E0,8E0,9E0,1E1,1E1,3E0,6E0,7E0,1E0,2E0,1.2E1,1E0,1E0,1E0,1.4E1,1E0,5E0,1E0,2E0,3E0,1E0,1.3E1,3E0,2E0,1.4E1,3E0,6E0,1E0,2E0,1E0,2E0,1E0,1E0,7E0,2.1E1,2E0,9E0,2.3E1,1.9E1,1.4E1,2E1,1E0,2E0,1E0,1.4E1,9E0,1E0,5.3E1,1.3E1,2.1E1,1.3E1,7E0,1E1,3.5E1,1.7E1,5E0,5E0,1.6E1,2E1,2.8E1,1.03E2,1.7E1,4.2E1,4E0,9E0,6E0,3E0,4E0,6E0,2E0,8E0,1.1E1,1E0,3E0,2E0,1E0,1E0,1E0,2E0,1.2E1,2E0,1E0,1E0,3E0,4E0,7E0,1.4E1,1.6E1,7E0,1.2E1,7E0,7E0,7E0,5E0,1.5E1,1E1,4.3E1,1E1,3E0,7E0,1.4E1,6E0,7E0,1E0,6E0,2E0,8E0,3E0,3.2E1,7E0,1E1,3E0,2E0,1.3E1,3E0,4E0,1.6E1,1.5E1,1.3E1,3.3E1,7E1,3E0,1.4E1,2.5E1,1.7E1,1E0,3E0,4E0,5E0,1E0,2E0,1E0,3E0,3E0,3E0,1E0,1E0,4E0,4E0,1E0,2E0,1E0,1E0,2E0,1E0,3E0,4E0,2E0,1.2E1,7E0,9E0,2E0,5E0,1E0,1.1E1,6E0,1E0,5E0,2E0,3E0,2E0,4E0,1.1E1,6E0,4E0,4E1,3E0,2E0,1E0,3E0,1.1E1,3E0,3E0,3E0,4E0,5E0,1E0,2E0,6E0,1E0,2E0,1.1E1,2.1E1,3E0,4E0,4E0,6E0,1E0,1E0,2E0,1.1E1,1E0,2E0,9E0,7E0,7E0,8E0,1E1,3E0,6E0,2.7E1,6.2E1,8E0,2E0,1E0,7E0,7E0,1.6E1,9E0,1.3E1,4E0,1E0,4E0,2E0,1E0,2E0,1E0,1E0,3E0,2E0,1E0,1E0,3E0,1E0,1E0,7E0,5E0,3E0,4E0,7E0,2E0,1E0,1E0,2E0,4E0,1E0,1E0,6E0,5E0,2E0,4E0,2.6E1,1.4E1,5E0,6E0,4E0,7E0,2E1,1E0,3E0,1E0,3E0,1E0,1E0,5E0,1E0,1E1,1E0,1E0,6E0,3E0,6E0,1E0,4E0,4E0,5E0,1E0,1.7E1,1E1,2.1E1,4.1E1,4E0,4E0,5E0,2E0,1E0,6E0,2E0,7E0,4E0,9E0,3E0,1E0,1E0,2E0,1E0,2E0,4E0,3E0,3E0,1E0,4E0,2E0,4E0,1E0,3E0,1E0,2.3E1,3E0,6E0,8E0,1E0,3E0,2E0,1E0,4E0,2E0,1E0,3E0,3E0,1E0,2E0,3E0,8E0,9E0,5E0,5E0,6E0,1.5E1,8E0,3.3E1,1E0,1E0,1E0,1E0,1E0,6E0,1E0,8E0,1E0,1E0,4E0,1.9E1,2E0,1E0,4E0,2E0,6E0,2E0,1E0,7E0,4E0,5E0,2E0,3E0,3E0,1.2E1,6E0,2E0,7E0,2.6E1,1.8E1,1E0,2E0,2E0,1E0,3E0,4E0,1E0,1E0,2E0,7E0,5E0,5E0,1E0,2E0,2.4E1],"tree_param":{"num_deleted":"0","num_feature":"2048","num_nodes":"541","size_leaf_vector":"1"}},{"base_weights":[-5.2184043E-3,-1.9714566E-2,7.415871E-2,1.5268402E-1,-2.7128065E-2,-1.7035455E-2,1.1857009E-1,-1.8081138E-2,1.8274976E-1,1.7215478E-3,-6.8884715E-2,7.026635E-3,-2.9550612E-3,1.6782066E-1,5.603526E-2,-4.1442705E-4,1.9094666E-2,2.5560253E-3,1.240285E-1,5.2438967E-2,-3.419415E-2,4.565345E-2,-1.170203E-1,-2.7011385E-2,1.20879374E-1,1.8045406E-1,-4.1527062E-4,1.2699068E-1,-8.646917E-3,4.3555796E-5,2.4286419E-4,3.6292538E-2,1.3915619E-3,-9.855818E-2,6.749835E-2,6.880593E-2,-5.863023E-2,7.9330884E-2,-2.4180502E-2,-1.3837355E-1,4.6276882E-2,-1.0128152E-1,4.2472403E-3,3.1729687E-2,1.8988249E-3,2.4891181E-3,1.4412336E-1,1.7675637E-1,7.078957E-2,-6.824025E-2,3.5631318E-2,4.2781234E-5,4.5537966E-4,2.3034642E-2,-1.6127414E-1,1.7934898E-2,9.899782E-2,3.5781424E-2,2.2628337E-1,-1.03584796E-1,7.2228694E-3,6.5926923E-3,1.092316E-1,-1.2889686E-1,4.5094155E-2,-1.5015167E-1,1.0160361E-1,-6.2834084E-2,9.55254E-2,3.711115E-2,-1.5781766E-1,4.308296E-2,-5.6157712E-2,-4.2053012E-4,5.489683E-4,-5.4942964E-5,1.4843203E-1,6.923082E-4,1.9295862E-3,9.374426E-2,1.4441162E-3,-9.507311E-4,-1.702618E-2,-1.4863059E-2,4.9493503E-2,6.9361407E-4,-9.368348E-3,-1.6847132E-3,-4.1052594E-4,1.0542337E-1,-2.4360305E-2,1.0890287E-1,-1.8575939E-3,1.0611662E-1,-1.5038951E-2,2.5039741E-3,9.458951E-4,-1.4691783E-1,7.4737333E-3,-3.850279E-2,7.499823E-2,4.1857496E-2,-3.285786E-2,1.4685388E-1,4.803921E-2,-1.4690689E-3,-1.989446E-4,-2.5606692E-2,1.1835568E-1,-1.8201777E-1,-8.7983325E-2,1.0356109E-2,1.2312097E-3,-9.495696E-2,3.306399E-4,1.2557161E-1,-1.3718295E-2,5.804904E-4,-1.2851268E-4,-1.0012721E-3,-2.205927E-3,8.350515E-2,-2.659234E-2,-7.8576966E-4,-1.3539213E-2,9.310318E-4,1.5639436E-3,2.8009413E-4,9.845995E-4,1.4593859E-2,-1.9002556E-4,-4.518774E-4,1.6810775E-2,4.5917033E-5,-2.2878547E-4,5.841142E-4,3.2692552E-3,6.3303784E-3,-3.6081625E-4,1.4337374E-1,-5.9872694E-2,1.0487858E-2,-1.2977879E-1,1.4018488E-1,6.234862E-2,2.3071282E-2,1.5263714E-1,5.819336E-2,-6.153992E-2,-1.0271914E-1,-2.5442865E-1,-6.1839387E-2,1.1787648E-1,1.0028436E-1,-6.783689E-2,-2.9422578E-3,1.4899144E-1,2.0448403E-2,6.3458725E-4,-4.919956E-4,-1.3763468E-2,1.7622785E-1,7.6357946E-2,-4.7071025E-4,6.8814315E-2,3.7101508E-4,-4.3664236E-2,1.4879865E-3,3.549154E-2,-2.0910908E-1,-7.972996E-2,-1.013094E-1,9.752184E-2,1.3567417E-4,1.9667446E-5,-4.082539E-4,-1.2534928E-3,5.995295E-4,1.4398266E-3,-2.3918852E-4,1.3541966E-4,4.7150333E-4,1.0594245E-3,1.2818973E-4,-3.730619E-2,-2.2095032E-2,1.03420316E-4,2.1000266E-4,8.905232E-6,2.4186939E-4,1.0292232E-5,4.684448E-5,2.194345E-6,-2.4676963E-4,2.4891814E-4,5.3924305E-4,1.5677523E-3,-7.88525E-4,8.023262E-5,9.327944E-2,-1.9455131E-2,-1.25496145E-2,-1.8682466E-1,1.6047566E-1,3.152075E-2,-5.653138E-2,9.4532944E-2,4.153106E-4,-5.7712645E-5,8.683979E-4,1.8722955E-3,1.2232681E-3,4.0704096E-3,-1.1437379E-3,-2.2323824E-2,-1.583578E-1,-1.0305023E-2,-2.9354104E-1,-1.0074455E-1,-1.08693846E-1,6.74777E-2,-1.5130609E-2,1.676182E-1,1.409844E-3,3.1387437E-2,3.262555E-4,-1.2510699E-1,-3.2689866E-2,1.1678374E-1,-4.1581225E-2,1.738577E-1,2.5430134E-2,-4.7209858E-5,-1.6578555E-4,-5.422195E-5,1.813878E-3,4.1674465E-4,1.1532465E-3,-1.0923281E-4,9.67165E-2,1.9123435E-2,-4.691401E-4,-8.8330205E-5,-3.77506E-5,4.983876E-4,-2.5067517E-1,-6.877024E-2,-2.5275066E-1,1.5529874E-2,-2.7869295E-3,-8.779533E-2,2.924621E-5,1.2043999E-3,-5.4884553E-5,5.68074E-5,-7.332891E-5,-4.296629E-4,-5.5159628E-5,-2.5782734E-4,1.0041554E-3,1.4527321E-4,1.9791316E-2,-6.0115244E-2,-4.2742744E-2,5.411145E-4,-7.624855E-4,-2.1097527E-3,1.3536334E-2,1.758195E-1,-2.434874E-2,1.0343388E-3,2.6007786E-2,-9.562071E-2,1.5829028E-1,4.4490416E-2,-6.04406E-4,2.4895676E-4,-3.9475877E-2,3.6573607E-2,4.651106E-3,-1.9574986E-1,-1.0201062E-1,4.1215032E-2,-4.2215927E-4,-3.039965E-3,8.5180876E-4,-1.4592893E-1,-1.3902533E-1,-5.3401317E-2,8.338876E-4,1.8466711E-4,3.3522994E-4,-3.567476E-2,2.0306914E-4,1.8031864E-3,-3.125936E-5,4.0797264E-4,-6.988901E-2,3.7752643E-2,-1.5263882E-1,5.7594836E-2,2.0319554E-3,-6.766568E-2,1.338672E-3,3.276667E-4,-8.342503E-4,2.1053194E-4,1.8818555E-3,4.4265884E-4,7.261574E-5,2.761153E-4,5.370397E-4,1.1644085E-3,-8.620818E-3,3.1945299E-4,-2.981202E-1,-1.5869373E-1,-9.284797E-2,1.3072323E-3,-2.8366467E-3,1.273778E-4,-4.751868E-2,1.6005486E-3,-3.0295018E-2,-1.1578812E-1,-7.244748E-3,6.155287E-2,-9.4004546E-4,-3.0842908E-2,-5.244553E-4,-6.817192E-5,6.9465715E-4,-3.1794786E-2,1.2731686E-2,1.8664977E-1,-2.3046832E-3,-7.830654E-4,-1.2263328E-4,4.28526E-4,-1.0405172E-3,-2.2517293E-4,6.408045E-4,1.765027E-1,-9.986897E-3,7.878314E-2,-4.4783004E-4,-1.3933957E-4,5.2292645E-4,2.567768E-5,-6.831947E-2,7.669146E-2,-6.382618E-2,-2.2645128E-1,-1.1412537E-3,-3.5701078E-4,-1.2710445E-2,1.2777086E-3,-4.3222815E-4,-1.8647629E-3,-1.4464563E-3,-4.1411145E-4,-9.004205E-5,-5.845744E-4,-4.5068035E-4,-3.747463E-5,2.964002E-4,-8.8341726E-4,8.4058724E-2,-2.4579365E-3,-3.268867E-2,-1.7747837E-1,7.92979E-4,-3.7571786E-5,2.3470669E-4,-1.259918E-2,-3.0014315E-4,-7.521375E-4,-1.0831177E-4,-2.1000504E-5,-3.2774046E-1,-7.357847E-2,-3.5841115E-2,-2.627766E-1,-1.7367074E-3,-3.425849E-2,-8.632896E-4,-2.3361677E-2,4.8230797E-2,-4.606214E-2,-1.4545648E-1,-5.6643758E-2,-1.4501529E-2,7.265806E-3,7.973748E-4,1.6789099E-4,-6.544471E-5,-3.685039E-4,-4.0180283E-4,-3.319144E-5,1.9827604E-4,-4.278034E-5,2.2029825E-1,1.2580761E-1,1.1870821E-2,-1.2360141E-2,1.8310174E-3,5.195668E-4,-7.7009597E-4,2.0163817E-2,2.7698124E-4,9.841002E-4,-1.4241785E-4,-7.827844E-4,8.8401616E-4,1.4925419E-4,4.2103925E-3,-8.720677E-4,-2.7147114E-1,-1.4380218E-1,2.0478318E-2,-4.931226E-2,1.0411934E-3,4.2983427E-4,2.0126601E-4,-1.178589E-2,-5.154885E-4,-2.9322702E-5,-2.3925924E-3,-1.3531193E-3,-2.2327334E-4,-6.1880826E-5,-3.3843487E-3,-7.233685E-4,-8.484106E-3,-9.791938E-4,-9.593916E-2,9.152321E-2,-3.0887404E-3,-1.088069E-3,-1.2179758E-2,-6.1666835E-2,-3.227196E-2,8.1863E-3,6.2037405E-4,3.4054814E-5,-5.5055074E-2,-8.2311034E-4,-7.972733E-2,-1.5730972E-3,-6.820286E-2,1.2326936E-2,-2.2108694E-4,-7.036924E-5,1.004537E-5,1.3024807E-4,2.313573E-3,9.886931E-4,1.5045715E-3,7.618852E-2,2.6782453E-5,1.5127986E-4,-3.7159025E-5,-1.400292E-4,-1.5608787E-3,4.965037E-2,-8.780241E-5,1.509583E-4,-3.108257E-3,-1.4751689E-3,-4.209871E-4,-1.59933E-3,-4.768034E-5,3.153046E-4,-6.159415E-4,-1.6498982E-4,-2.2473602E-4,-6.259004E-5,-2.3320525E-4,1.05943676E-4,-1.5578985E-4,-1.0313707E-3,1.3842541E-3,1.4113267E-4,-1.7785745E-2,4.9607954E-3,-1.7452457E-4,-7.941091E-4,-3.6468107E-4,-1.312234E-4,-5.3343174E-6,1.2812883E-4,-2.2673949E-4,-6.126086E-2,1.1348814E-4,-8.663356E-5,-1.0285688E-3,-2.2312134E-4,-7.3482655E-2,-2.4226307E-5,-4.9902796E-5,2.3480684E-4,1.4949829E-4,8.280121E-4,-6.0165225E-5,8.1308484E-5,1.4981806E-4,5.949375E-4,-2.008457E-4,-1.996398E-5,9.622037E-5,-2.1808444E-5,-3.496752E-2,-8.1726274E-4,-7.618084E-4,-2.1901279E-4,-4.4221597E-4,-7.888217E-5],"categories":[],"categories_nodes":[],"categories_segments":[],"categories_sizes":[],"default_left":[0,0,0,0,0,0,0,0,0,0,0,0,0,0,0,0,0,0,0,0,0,0,0,0,0,0,0,0,0,0,0,0,0,0,0,0,0,0,0,0,0,0,0,0,0,0,0,0,0,0,0,0,0,0,0,0,0,0,0,0,0,0,0,0,0,0,0,0,0,0,0,0,0,0,0,0,0,0,0,0,0,0,0,0,0,0,0,0,0,0,0,0,0,0,0,0,0,0,0,0,0,0,0,0,0,0,0,0,0,0,0,0,0,0,0,0,0,0,0,0,0,0,0,0,0,0,0,0,0,0,0,0,0,0,0,0,0,0,0,0,0,0,0,0,0,0,0,0,0,0,0,0,0,0,0,0,0,0,0,0,0,0,0,0,0,0,0,0,0,0,0,0,0,0,0,0,0,0,0,0,0,0,0,0,0,0,0,0,0,0,0,0,0,0,0,0,0,0,0,0,0,0,0,0,0,0,0,0,0,0,0,0,0,0,0,0,0,0,0,0,0,0,0,0,0,0,0,0,0,0,0,0,0,0,0,0,0,0,0,0,0,0,0,0,0,0,0,0,0,0,0,0,0,0,0,0,0,0,0,0,0,0,0,0,0,0,0,0,0,0,0,0,0,0,0,0,0,0,0,0,0,0,0,0,0,0,0,0,0,0,0,0,0,0,0,0,0,0,0,0,0,0,0,0,0,0,0,0,0,0,0,0,0,0,0,0,0,0,0,0,0,0,0,0,0,0,0,0,0,0,0,0,0,0,0,0,0,0,0,0,0,0,0,0,0,0,0,0,0,0,0,0,0,0,0,0,0,0,0,0,0,0,0,0,0,0,0,0,0,0,0,0,0,0,0,0,0,0,0,0,0,0,0,0,0,0,0,0,0,0,0,0,0,0,0,0,0,0,0,0,0,0,0,0,0,0,0,0,0,0,0,0,0,0,0,0,0,0,0,0,0,0,0,0,0,0,0,0,0,0,0,0,0,0,0,0,0,0,0,0,0,0,0,0,0,0,0,0,0,0,0,0,0,0,0,0,0,0,0,0,0,0,0,0,0,0,0,0,0,0,0,0,0,0,0,0,0,0,0,0,0,0,0,0,0,0,0,0,0,0,0,0,0,0,0,0,0,0,0,0,0,0,0,0,0,0,0,0,0,0,0,0,0,0,0,0,0],"id":3,"left_children":[1,3,5,7,9,11,13,15,17,19,21,23,-1,25,27,-1,29,-1,31,33,35,37,39,41,43,45,-1,47,49,-1,-1,51,-1,53,55,57,59,61,63,65,67,69,71,73,-1,-1,75,77,79,81,83,-1,-1,85,87,89,91,93,95,97,99,101,103,105,107,109,111,113,115,117,119,121,123,-1,-1,-1,125,-1,-1,127,129,-1,131,133,135,-1,137,-1,-1,139,141,143,-1,145,147,-1,-1,149,151,153,155,157,159,161,163,-1,-1,165,167,169,171,173,-1,175,-1,177,179,-1,-1,-1,-1,181,183,-1,185,-1,-1,-1,-1,187,-1,-1,189,-1,-1,-1,191,193,-1,195,197,199,201,203,205,207,209,211,213,215,217,219,221,223,225,227,229,231,-1,-1,233,235,237,-1,239,-1,241,-1,243,245,247,249,251,-1,-1,-1,-1,-1,-1,-1,-1,-1,-1,253,255,257,-1,-1,-1,-1,-1,-1,-1,-1,-1,-1,-1,-1,-1,259,261,263,265,267,269,271,273,-1,-1,-1,-1,-1,275,-1,277,279,281,283,285,287,289,291,293,-1,295,297,299,301,303,305,307,309,-1,-1,-1,-1,-1,-1,-1,311,313,-1,-1,-1,-1,315,317,319,321,-1,323,-1,-1,-1,-1,-1,-1,-1,-1,-1,-1,325,327,329,-1,-1,-1,331,333,335,-1,337,339,341,343,-1,-1,345,347,349,351,353,355,-1,-1,-1,357,359,361,-1,-1,-1,363,-1,-1,-1,-1,365,367,369,371,373,375,-1,-1,-1,-1,-1,-1,-1,-1,-1,-1,377,-1,379,381,383,-1,-1,-1,385,-1,387,389,391,393,-1,395,-1,-1,-1,397,399,401,403,-1,-1,-1,-1,-1,-1,405,407,409,-1,-1,-1,-1,411,413,415,417,-1,-1,419,-1,-1,-1,-1,-1,-1,-1,-1,-1,-1,-1,421,423,425,427,-1,-1,-1,429,-1,-1,-1,-1,431,433,435,437,-1,439,-1,441,443,445,447,449,451,453,-1,-1,-1,-1,-1,-1,-1,-1,455,457,459,461,-1,-1,-1,463,-1,-1,-1,-1,-1,-1,465,-1,467,469,471,473,-1,-1,-1,475,-1,-1,-1,-1,-1,-1,-1,-1,477,-1,479,481,-1,-1,483,485,487,489,-1,-1,491,493,495,-1,497,499,-1,-1,-1,-1,-1,-1,-1,501,-1,-1,-1,-1,503,505,-1,-1,-1,-1,-1,-1,-1,-1,-1,-1,-1,-1,-1,-1,-1,-1,-1,-1,507,509,-1,-1,-1,-1,-1,-1,-1,511,-1,-1,-1,-1,513,-1,-1,-1,-1,-1,-1,-1,-1,-1,-1,-1,-1,-1,515,-1,-1,-1,-1,-1],"loss_changes":[1.1176057E0,1.053443E0,6.0952884E-1,1.7786658E-1,9.4939303E-1,3.3710572E-1,3.0166352E-1,6.0022445E-3,9.236026E-2,8.524576E-1,1.7806449E0,1.8540524E-1,0E0,1.5560114E-1,2.1221742E-1,0E0,1.2378371E-4,0E0,1.8840045E-2,4.4779366E-1,6.936698E-1,2.2769375E-1,7.979357E-1,8.632871E-2,6.1642766E-2,9.594333E-2,0E0,4.901901E-2,6.839867E-2,0E0,0E0,9.891312E-4,0E0,1.409795E-1,2.745608E-1,2.6753592E-1,6.579564E-1,1.4064994E-1,2.3794657E-1,5.833781E-1,1.5108818E-1,9.192287E-2,6.575792E-2,1.2564585E-2,0E0,0E0,2.466774E-2,5.8050454E-3,1.8966269E-2,1.3497684E-2,1.123506E-2,0E0,0E0,1.1157682E-2,3.4669042E-3,2.6159212E-1,3.2484782E-1,1.6244663E-1,4.8960447E-3,6.363487E-1,2.849033E-1,2.919967E-2,9.8846376E-2,2.2598132E-2,1.0662373E-1,3.6434984E-1,1.8359005E-2,3.086435E-2,6.408745E-2,4.930435E-3,6.884828E-3,5.0099876E-2,9.446353E-3,0E0,0E0,0E0,1.2987852E-3,0E0,0E0,3.2052398E-5,1.3527947E-3,0E0,5.5241487E-3,7.288092E-4,4.75573E-3,0E0,2.3252328E-3,0E0,0E0,1.5286422E-1,1.7769584E-1,1.4417219E-1,0E0,6.9881395E-2,9.552629E-2,0E0,0E0,4.2528987E-1,2.9807904E-1,2.307188E-1,2.1381985E-1,3.7894603E-3,2.4431925E-3,4.452443E-2,4.078174E-2,0E0,0E0,1.4075926E-2,1.9945204E-2,3.3248806E-1,1.7550755E-1,5.4138887E-5,0E0,6.398849E-3,0E0,